{"learner":{"attributes":{"scikit_learn":"{\"_estimator_type\": \"regressor\"}"},"feature_names":["engine_load","speed","rpm","exhaust_temp_pre","exhaust_temp_post","diff_pressure","ambient_temp","is_moving","exhaust_temp_pre_mean_15m","diff_pressure_mean_15m","exhaust_temp_pre_mean_60m","diff_pressure_mean_60m","time_since_last_regen_hours","dist_since_last_regen","load_sum_since_last_regen","pressure_per_rpm"],"feature_types":["float","float","float","float","float","float","float","i","float","float","float","float","float","float","float","float"],"gradient_booster":{"model":{"gbtree_model_param":{"num_parallel_tree":"1","num_trees":"100"},"iteration_indptr":[0,1,2,3,4,5,6,7,8,9,10,11,12,13,14,15,16,17,18,19,20,21,22,23,24,25,26,27,28,29,30,31,32,33,34,35,36,37,38,39,40,41,42,43,44,45,46,47,48,49,50,51,52,53,54,55,56,57,58,59,60,61,62,63,64,65,66,67,68,69,70,71,72,73,74,75,76,77,78,79,80,81,82,83,84,85,86,87,88,89,90,91,92,93,94,95,96,97,98,99,100],"tree_info":[0,0,0,0,0,0,0,0,0,0,0,0,0,0,0,0,0,0,0,0,0,0,0,0,0,0,0,0,0,0,0,0,0,0,0,0,0,0,0,0,0,0,0,0,0,0,0,0,0,0,0,0,0,0,0,0,0,0,0,0,0,0,0,0,0,0,0,0,0,0,0,0,0,0,0,0,0,0,0,0,0,0,0,0,0,0,0,0,0,0,0,0,0,0,0,0,0,0,0,0],"trees":[{"base_weights":[2.2019968E-8,-2.926091E1,4.6383147E0,-3.8765293E1,-1.7585917E1,-7.4427044E-1,1.2463445E1,-4.4640316E1,-3.0819479E1,-9.216299E0,-2.8592365E1,6.127654E0,-3.5716643E0,6.950201E0,1.5233858E1,-4.7074066E1,-3.7052418E1,-2.067439E1,-3.3161095E1,-1.771216E1,-5.8680205E0,-3.2898827E1,-2.6045258E1,-2.0034103E0,1.0138397E1,-1.4052974E1,-1.5021161E0,4.004488E0,8.952508E0,1.2831326E1,1.676293E1,-5.0074776E1,-4.3902645E1,-3.9490845E1,-3.0816477E1,-1.4441874E1,-2.6484646E1,-3.547507E1,-2.7443369E1,-7.6821976E0,-2.0657618E1,-4.216463E0,-9.799805E0,-4.0215683E0,-3.1422715E0,-2.4594673E1,-2.8121376E0,-5.249867E0,8.3810407E-1,4.9783154E0,1.2359105E1,-1.909097E1,-1.0470165E1,-5.428664E0,9.8562706E-1,1.1825748E1,3.670715E0,7.735557E0,1.0001171E1,1.4523401E1,9.654318E0,1.3762162E1,1.798842E1,-4.6187153E0,-5.2332E0,-3.6105843E0,-4.5308223E0,-1.0522568E0,-3.9561787E0,-3.2683346E0,-2.4315307E0,-2.746694E0,-1.1581033E0,-3.136931E0,-2.3917139E0,-3.8002834E0,-3.383436E0,-2.8510005E0,-2.4482715E0,-2.0455317E0,-6.728227E-1,-2.1817017E0,-7.610965E-1,-6.600606E-1,-1.5556578E-1,-1.1460686E0,-1.7574342E-1,-2.6322381E0,-2.2695832E0,7.137165E-1,-5.513448E-1,-8.527618E-2,2.4053946E-1,-7.371591E-2,7.1787274E-1,7.6351786E-1,1.4259074E0,-1.5663403E0,-2.1134868E0,-6.852032E-1,-1.3218608E0,-6.940888E-1,-3.8294226E-1,-3.8571736E-1,2.3988071E-1,1.4179568E0,7.0176715E-1,1.2136059E-1,4.9393326E-1,7.0262325E-1,8.235658E-1,9.409568E-1,1.0542454E0,1.2867621E0,1.7156361E0,1.326168E0,7.338961E-1,1.2531103E0,1.4777268E0,1.8522774E0,1.6297562E0],"categories":[],"categories_nodes":[],"categories_segments":[],"categories_sizes":[],"default_left":[0,0,0,0,0,0,0,0,0,0,0,0,0,0,0,0,0,0,0,0,0,0,0,0,0,0,0,0,0,0,0,0,0,0,0,0,0,0,0,0,0,0,0,0,0,0,0,0,0,0,0,0,0,0,0,0,0,0,0,0,0,0,0,0,0,0,0,0,0,0,0,0,0,0,0,0,0,0,0,0,0,0,0,0,0,0,0,0,0,0,0,0,0,0,0,0,0,0,0,0,0,0,0,0,0,0,0,0,0,0,0,0,0,0,0,0,0,0,0,0,0],"id":0,"left_children":[1,3,5,7,9,11,13,15,17,19,21,23,25,27,29,31,33,35,37,39,41,43,45,47,49,51,53,55,57,59,61,63,65,67,69,71,73,75,77,79,81,83,85,-1,-1,87,-1,89,91,93,95,97,99,101,103,105,107,109,111,113,115,117,119,-1,-1,-1,-1,-1,-1,-1,-1,-1,-1,-1,-1,-1,-1,-1,-1,-1,-1,-1,-1,-1,-1,-1,-1,-1,-1,-1,-1,-1,-1,-1,-1,-1,-1,-1,-1,-1,-1,-1,-1,-1,-1,-1,-1,-1,-1,-1,-1,-1,-1,-1,-1,-1,-1,-1,-1,-1,-1],"loss_changes":[4.6907995E6,5.240655E5,1.2565582E6,1.20277E5,1.9539881E5,3.434602E5,1.8559488E5,2.58825E4,2.570725E4,3.4259438E4,9.20175E3,1.6806794E5,2.716442E5,2.3958125E4,2.95085E4,8.54575E3,4.3788125E3,7.2583516E3,1.094725E4,9.915398E3,5.5950957E3,2.3760938E3,1.0580938E3,1.5714323E4,3.9483594E4,3.707372E4,1.0218117E5,4.2587383E3,3.01225E3,1.6798781E4,1.79225E4,2.611125E3,4.468375E3,1.200625E2,5.160703E2,3.5572188E3,6.042031E2,1.36025E3,1.356875E2,8.2500146E2,3.812164E3,3.8784434E3,3.3993594E3,0E0,0E0,5.508125E2,0E0,2.6350176E3,2.4109724E3,1.3084746E4,2.1539594E4,5.67275E3,1.1932016E4,9.784922E3,4.383662E4,6.587549E2,4.9253086E3,3.4121094E2,3.16125E2,8.733875E3,9.073531E3,1.6105938E3,2.865E3,0E0,0E0,0E0,0E0,0E0,0E0,0E0,0E0,0E0,0E0,0E0,0E0,0E0,0E0,0E0,0E0,0E0,0E0,0E0,0E0,0E0,0E0,0E0,0E0,0E0,0E0,0E0,0E0,0E0,0E0,0E0,0E0,0E0,0E0,0E0,0E0,0E0,0E0,0E0,0E0,0E0,0E0,0E0,0E0,0E0,0E0,0E0,0E0,0E0,0E0,0E0,0E0,0E0,0E0,0E0,0E0,0E0,0E0],"parents":[2147483647,0,0,1,1,2,2,3,3,4,4,5,5,6,6,7,7,8,8,9,9,10,10,11,11,12,12,13,13,14,14,15,15,16,16,17,17,18,18,19,19,20,20,21,21,22,22,23,23,24,24,25,25,26,26,27,27,28,28,29,29,30,30,31,31,32,32,33,33,34,34,35,35,36,36,37,37,38,38,39,39,40,40,41,41,42,42,45,45,47,47,48,48,49,49,50,50,51,51,52,52,53,53,54,54,55,55,56,56,57,57,58,58,59,59,60,60,61,61,62,62],"right_children":[2,4,6,8,10,12,14,16,18,20,22,24,26,28,30,32,34,36,38,40,42,44,46,48,50,52,54,56,58,60,62,64,66,68,70,72,74,76,78,80,82,84,86,-1,-1,88,-1,90,92,94,96,98,100,102,104,106,108,110,112,114,116,118,120,-1,-1,-1,-1,-1,-1,-1,-1,-1,-1,-1,-1,-1,-1,-1,-1,-1,-1,-1,-1,-1,-1,-1,-1,-1,-1,-1,-1,-1,-1,-1,-1,-1,-1,-1,-1,-1,-1,-1,-1,-1,-1,-1,-1,-1,-1,-1,-1,-1,-1,-1,-1,-1,-1,-1,-1,-1,-1],"split_conditions":[1.039524E-3,1.3178148E0,1.3790004E-3,8.3434256E-4,6.533867E-1,2.786505E1,1.7361788E3,3.2083332E1,2.0452223E2,9.2708494E-4,9.523787E-4,1.1330316E3,1.1911058E-3,1.337854E3,1.4829496E-3,7.2128157E-4,4.8166668E1,2.5398627E2,9.4381924E-4,1.75E1,4.6083332E1,8.6064416E-4,4.420559E1,5.921519E2,1.1752705E-3,1.1250656E-3,5.921519E2,1.156803E1,1.5416752E3,7.8666664E1,2.1371047E3,2.6096767E1,2.8607208E1,1.0146111E3,6.1333332E1,1.0670968E0,1.1644591E0,8.7291934E-4,1.0059903E-3,4.5708385E-1,1.01166664E2,4.384617E2,1.16916664E2,-4.0215683E0,-3.1422715E0,9.991947E-4,-2.8121376E0,3.3333334E-1,8.539619E2,1.6300874E0,1.7123829E3,3.976527E1,2.5333334E1,3.232169E2,1.2767443E-3,5.0931464E2,1.0489225E3,1.4336274E3,1.6391611E3,2.0645547E3,3.942536E1,1.9527039E3,7.8666664E1,-4.6187153E0,-5.2332E0,-3.6105843E0,-4.5308223E0,-1.0522568E0,-3.9561787E0,-3.2683346E0,-2.4315307E0,-2.746694E0,-1.1581033E0,-3.136931E0,-2.3917139E0,-3.8002834E0,-3.383436E0,-2.8510005E0,-2.4482715E0,-2.0455317E0,-6.728227E-1,-2.1817017E0,-7.610965E-1,-6.600606E-1,-1.5556578E-1,-1.1460686E0,-1.7574342E-1,-2.6322381E0,-2.2695832E0,7.137165E-1,-5.513448E-1,-8.527618E-2,2.4053946E-1,-7.371591E-2,7.1787274E-1,7.6351786E-1,1.4259074E0,-1.5663403E0,-2.1134868E0,-6.852032E-1,-1.3218608E0,-6.940888E-1,-3.8294226E-1,-3.8571736E-1,2.3988071E-1,1.4179568E0,7.0176715E-1,1.2136059E-1,4.9393326E-1,7.0262325E-1,8.235658E-1,9.409568E-1,1.0542454E0,1.2867621E0,1.7156361E0,1.326168E0,7.338961E-1,1.2531103E0,1.4777268E0,1.8522774E0,1.6297562E0],"split_indices":[15,11,15,15,5,0,14,12,3,15,15,14,15,14,15,15,12,10,15,12,12,15,0,14,15,15,14,13,14,12,14,1,0,13,12,11,11,15,15,5,12,14,12,0,0,15,0,12,14,11,14,0,12,14,15,8,14,14,14,14,0,14,12,0,0,0,0,0,0,0,0,0,0,0,0,0,0,0,0,0,0,0,0,0,0,0,0,0,0,0,0,0,0,0,0,0,0,0,0,0,0,0,0,0,0,0,0,0,0,0,0,0,0,0,0,0,0,0,0,0,0],"split_type":[0,0,0,0,0,0,0,0,0,0,0,0,0,0,0,0,0,0,0,0,0,0,0,0,0,0,0,0,0,0,0,0,0,0,0,0,0,0,0,0,0,0,0,0,0,0,0,0,0,0,0,0,0,0,0,0,0,0,0,0,0,0,0,0,0,0,0,0,0,0,0,0,0,0,0,0,0,0,0,0,0,0,0,0,0,0,0,0,0,0,0,0,0,0,0,0,0,0,0,0,0,0,0,0,0,0,0,0,0,0,0,0,0,0,0,0,0,0,0,0,0],"sum_hessian":[3.456E4,4.728E3,2.9832E4,2.605E3,2.123E3,1.7675E4,1.2157E4,1.495E3,1.11E3,1.207E3,9.16E2,5.152E3,1.2523E4,4.067E3,8.09E3,1.128E3,3.67E2,2.1E2,9E2,3.4E2,8.67E2,3.36E2,5.8E2,1.702E3,3.45E3,2.064E3,1.0459E4,1.647E3,2.42E3,3.15E3,4.94E3,5.72E2,5.56E2,2.6E2,1.07E2,1.03E2,1.07E2,6.37E2,2.63E2,7.8E1,2.62E2,6.12E2,2.55E2,5.2E1,2.84E2,3.49E2,2.31E2,7.94E2,9.08E2,1.039E3,2.411E3,8.56E2,1.208E3,4.056E3,6.403E3,6.6E1,1.581E3,1.124E3,1.296E3,2.053E3,1.097E3,1.436E3,3.504E3,2.18E2,3.54E2,8.9E1,4.67E2,1E0,2.59E2,8E1,2.7E1,1.7E1,8.6E1,3.3E1,7.4E1,2.42E2,3.95E2,1.87E2,7.6E1,4E0,7.4E1,2.4E2,2.2E1,3.22E2,2.9E2,2.11E2,4.4E1,1.76E2,1.73E2,1.6E1,7.78E2,4.37E2,4.71E2,2.89E2,7.5E2,6.93E2,1.718E3,3.23E2,5.33E2,5.23E2,6.85E2,2.083E3,1.973E3,1.446E3,4.957E3,4.3E1,2.3E1,5.39E2,1.042E3,4.71E2,6.53E2,6.28E2,6.68E2,1.264E3,7.89E2,4.27E2,6.7E2,6.55E2,7.81E2,2.655E3,8.49E2],"tree_param":{"num_deleted":"0","num_feature":"16","num_nodes":"121","size_leaf_vector":"1"}},{"base_weights":[-1.7219764E-3,-2.6350317E1,4.174945E0,-3.668679E1,-1.7630354E1,-9.471548E-1,1.0838173E1,-3.8254986E1,-2.0842516E1,-7.38805E0,-2.6016405E1,5.67645E0,-3.5629976E0,5.6163144E0,1.3461158E1,-4.0585968E1,-3.0989222E1,-1.7589764E1,-3.2789826E0,-1.0965663E1,-3.9073915E0,-2.8755104E1,-2.3400139E1,-1.4437153E0,9.424726E0,-1.3074529E1,-1.7787688E0,2.8290234E0,7.470211E0,1.1319456E1,1.4986631E1,-4.2984253E1,-3.502215E1,-3.3121056E1,-2.5205645E1,-6.929896E0,-1.9652561E1,-5.691143E0,-1.5068596E1,-1.0862119E0,-5.380946E0,-2.623512E0,-2.98675E1,-2.1857311E1,-2.5091953E1,-4.2635303E0,1.5001856E0,4.278104E0,1.1214554E1,-6.4087605E0,-1.5233455E1,-5.193268E0,2.8537923E-1,1.0576623E1,2.5015993E0,6.3148293E0,8.462397E0,1.2769488E1,8.444834E0,1.2363284E1,1.6262114E1,-4.4485426E0,-3.9267457E0,-2.8419826E0,-3.6426399E0,-2.3321044E0,-3.3430817E0,-2.6742258E0,-1.8719895E0,-6.0660845E-1,-1.4694501E0,-1.4136698E0,-2.2279704E0,-2.3209536E0,-5.313479E-1,-1.2015449E0,-1.9735383E0,-4.6141273E-1,1.4941856E-1,-8.395511E-1,-2.5059757E-1,-3.0289586E0,-2.5336854E0,-2.3004928E0,-2.0149562E0,-2.6161978E0,-2.3042216E0,-5.72174E-1,-2.484117E-1,1.4496872E-2,2.8516895E-1,7.1434337E-1,-3.0911535E-2,7.7506113E-1,1.3101752E0,-7.3745066E-1,-4.7884995E-1,-1.8616418E0,-1.2835015E0,-6.5426534E-1,-3.942786E-1,-4.3594524E-1,1.5290761E-1,1.2793838E0,6.571657E-1,1.355575E-2,3.6216852E-1,5.7911587E-1,6.876565E-1,7.8838605E-1,8.961801E-1,1.1123158E0,1.5239404E0,1.1364454E0,5.9293294E-1,1.0930369E0,1.3315233E0,1.678922E0,1.4669722E0],"categories":[],"categories_nodes":[],"categories_segments":[],"categories_sizes":[],"default_left":[0,0,0,0,0,0,0,0,0,0,0,0,0,0,0,0,0,0,0,0,0,0,0,0,0,0,0,0,0,0,0,0,0,0,0,0,0,0,0,0,0,0,0,0,0,0,0,0,0,0,0,0,0,0,0,0,0,0,0,0,0,0,0,0,0,0,0,0,0,0,0,0,0,0,0,0,0,0,0,0,0,0,0,0,0,0,0,0,0,0,0,0,0,0,0,0,0,0,0,0,0,0,0,0,0,0,0,0,0,0,0,0,0,0,0,0,0,0,0],"id":1,"left_children":[1,3,5,7,9,11,13,15,17,19,21,23,25,27,29,31,33,35,-1,37,39,41,43,45,47,49,51,53,55,57,59,61,63,65,67,69,71,73,75,77,79,-1,81,83,85,87,89,91,93,95,97,99,101,103,105,107,109,111,113,115,117,-1,-1,-1,-1,-1,-1,-1,-1,-1,-1,-1,-1,-1,-1,-1,-1,-1,-1,-1,-1,-1,-1,-1,-1,-1,-1,-1,-1,-1,-1,-1,-1,-1,-1,-1,-1,-1,-1,-1,-1,-1,-1,-1,-1,-1,-1,-1,-1,-1,-1,-1,-1,-1,-1,-1,-1,-1,-1],"loss_changes":[3.8035245E6,4.2559525E5,1.0182021E6,5.29465E4,2.2029375E5,2.922804E5,1.7751788E5,3.205625E4,7.0789844E3,1.4364637E4,9.437125E3,1.27477125E5,2.05204E5,2.2389656E4,2.8025375E4,1.832325E4,5.1080312E3,3.3161055E3,0E0,1.2249617E4,2.4385674E3,1.1366875E3,1.3491562E3,1.3686867E4,2.8775031E4,2.7389031E4,7.177864E4,4.3722656E3,2.9316719E3,1.4873E4,1.6653E4,4.022375E3,3.1646875E3,2.798125E2,8.3484375E2,9.19552E1,1.5833555E3,1.5373115E3,4.3223516E3,1.854889E3,3.3243398E3,0E0,1.275E2,2.9685938E2,1.4289062E2,2.1705732E3,1.4776721E3,1.0635621E4,1.5071156E4,6.9856055E2,1.14611875E4,6.4486797E3,3.6677555E4,5.3751416E2,4.412042E3,3.1523438E2,3.3326562E2,9.536781E3,8.804555E3,2.1078906E3,2.5958125E3,0E0,0E0,0E0,0E0,0E0,0E0,0E0,0E0,0E0,0E0,0E0,0E0,0E0,0E0,0E0,0E0,0E0,0E0,0E0,0E0,0E0,0E0,0E0,0E0,0E0,0E0,0E0,0E0,0E0,0E0,0E0,0E0,0E0,0E0,0E0,0E0,0E0,0E0,0E0,0E0,0E0,0E0,0E0,0E0,0E0,0E0,0E0,0E0,0E0,0E0,0E0,0E0,0E0,0E0,0E0,0E0,0E0,0E0],"parents":[2147483647,0,0,1,1,2,2,3,3,4,4,5,5,6,6,7,7,8,8,9,9,10,10,11,11,12,12,13,13,14,14,15,15,16,16,17,17,19,19,20,20,21,21,22,22,23,23,24,24,25,25,26,26,27,27,28,28,29,29,30,30,31,31,32,32,33,33,34,34,35,35,36,36,37,37,38,38,39,39,40,40,42,42,43,43,44,44,45,45,46,46,47,47,48,48,49,49,50,50,51,51,52,52,53,53,54,54,55,55,56,56,57,57,58,58,59,59,60,60],"right_children":[2,4,6,8,10,12,14,16,18,20,22,24,26,28,30,32,34,36,-1,38,40,42,44,46,48,50,52,54,56,58,60,62,64,66,68,70,72,74,76,78,80,-1,82,84,86,88,90,92,94,96,98,100,102,104,106,108,110,112,114,116,118,-1,-1,-1,-1,-1,-1,-1,-1,-1,-1,-1,-1,-1,-1,-1,-1,-1,-1,-1,-1,-1,-1,-1,-1,-1,-1,-1,-1,-1,-1,-1,-1,-1,-1,-1,-1,-1,-1,-1,-1,-1,-1,-1,-1,-1,-1,-1,-1,-1,-1,-1,-1,-1,-1,-1,-1,-1,-1],"split_conditions":[1.039524E-3,8.862349E-4,1.3682162E-3,1.3777899E0,6.533867E-1,2.4675255E1,1.6877559E3,3.7666668E1,1.06371155E1,1.5866274E0,9.599142E-4,1.1801401E3,1.1818722E-3,1.2657402E3,1.4829496E-3,7.91006E-4,5.4166668E1,1.75E1,-3.2789826E0,7.407589E2,2.8467264E2,3.8280518E1,4.3080708E1,6.5961646E2,6.967383E-1,1.8166666E1,5.4573004E2,1.156803E1,1.4820182E3,7.8666664E1,2.1632493E3,6.9591785E2,2.7785052E2,2.494857E0,7.3E1,8.11155E0,2.900571E2,1.0670968E0,2.748981E2,1.7833334E1,1.8173473E0,-2.623512E0,2.081738E3,1.0059903E-3,1.013494E-3,3.9121762E2,9.38277E2,7.3416664E1,1.8190553E3,1.8650209E2,1.1013708E-3,2.793317E2,1.2603784E-3,5.0931464E2,9.621537E2,1.385693E3,1.5806013E3,2.0264408E3,4.080692E1,1.9285878E3,7.8666664E1,-4.4485426E0,-3.9267457E0,-2.8419826E0,-3.6426399E0,-2.3321044E0,-3.3430817E0,-2.6742258E0,-1.8719895E0,-6.0660845E-1,-1.4694501E0,-1.4136698E0,-2.2279704E0,-2.3209536E0,-5.313479E-1,-1.2015449E0,-1.9735383E0,-4.6141273E-1,1.4941856E-1,-8.395511E-1,-2.5059757E-1,-3.0289586E0,-2.5336854E0,-2.3004928E0,-2.0149562E0,-2.6161978E0,-2.3042216E0,-5.72174E-1,-2.484117E-1,1.4496872E-2,2.8516895E-1,7.1434337E-1,-3.0911535E-2,7.7506113E-1,1.3101752E0,-7.3745066E-1,-4.7884995E-1,-1.8616418E0,-1.2835015E0,-6.5426534E-1,-3.942786E-1,-4.3594524E-1,1.5290761E-1,1.2793838E0,6.571657E-1,1.355575E-2,3.6216852E-1,5.7911587E-1,6.876565E-1,7.8838605E-1,8.961801E-1,1.1123158E0,1.5239404E0,1.1364454E0,5.9293294E-1,1.0930369E0,1.3315233E0,1.678922E0,1.4669722E0],"split_indices":[15,15,15,11,5,1,14,12,0,11,15,14,15,14,15,15,12,12,0,13,10,0,0,14,5,12,14,13,14,12,14,13,3,0,12,0,10,11,10,12,11,0,13,15,15,14,14,12,14,13,15,14,15,8,14,14,14,14,0,14,12,0,0,0,0,0,0,0,0,0,0,0,0,0,0,0,0,0,0,0,0,0,0,0,0,0,0,0,0,0,0,0,0,0,0,0,0,0,0,0,0,0,0,0,0,0,0,0,0,0,0,0,0,0,0,0,0,0,0],"split_type":[0,0,0,0,0,0,0,0,0,0,0,0,0,0,0,0,0,0,0,0,0,0,0,0,0,0,0,0,0,0,0,0,0,0,0,0,0,0,0,0,0,0,0,0,0,0,0,0,0,0,0,0,0,0,0,0,0,0,0,0,0,0,0,0,0,0,0,0,0,0,0,0,0,0,0,0,0,0,0,0,0,0,0,0,0,0,0,0,0,0,0,0,0,0,0,0,0,0,0,0,0,0,0,0,0,0,0,0,0,0,0,0,0,0,0,0,0,0,0],"sum_hessian":[3.456E4,4.728E3,2.9832E4,2.162E3,2.566E3,1.6867E4,1.2965E4,1.966E3,1.96E2,1.156E3,1.41E3,4.775E3,1.2092E4,4.336E3,8.629E3,1.485E3,4.81E2,1.56E2,4E1,5.69E2,5.87E2,6.84E2,7.26E2,1.647E3,3.128E3,1.909E3,1.0183E4,1.733E3,2.603E3,3.593E3,5.036E3,1.033E3,4.52E2,3.48E2,1.33E2,2.6E1,1.3E2,2.5E2,3.19E2,2.02E2,3.85E2,2.17E2,4.67E2,3.87E2,3.39E2,8.41E2,8.06E2,8.08E2,2.32E3,4.68E2,1.441E3,3.836E3,6.347E3,6.9E1,1.664E3,1.206E3,1.397E3,2.386E3,1.207E3,1.651E3,3.385E3,7.28E2,3.05E2,8.3E1,3.69E2,1.3E1,3.35E2,1.05E2,2.8E1,2.5E1,1E0,4.4E1,8.6E1,4E0,2.46E2,1.95E2,1.24E2,8.5E1,1.17E2,1.87E2,1.98E2,4.22E2,4.5E1,2.24E2,1.63E2,2.15E2,1.24E2,4.61E2,3.8E2,4.03E2,4.03E2,4.97E2,3.11E2,8.2E2,1.5E3,2.91E2,1.77E2,5.95E2,8.46E2,1.843E3,1.993E3,1.34E3,5.007E3,4.3E1,2.6E1,5.35E2,1.129E3,6.3E2,5.76E2,6.55E2,7.42E2,1.435E3,9.51E2,5.57E2,6.5E2,6.64E2,9.87E2,2.536E3,8.49E2],"tree_param":{"num_deleted":"0","num_feature":"16","num_nodes":"119","size_leaf_vector":"1"}},{"base_weights":[-2.914848E-3,-2.2975103E1,3.883419E0,-3.1915339E1,-1.4293428E1,-4.188858E-1,1.0158364E1,-3.6814957E1,-2.586059E1,-7.1364493E0,-2.3126266E1,5.3798575E0,-2.6289415E0,5.8638434E0,1.2483261E1,-3.893648E1,-3.1144249E1,-2.815341E1,-1.96709E1,-1.6500626E1,-4.8820868E0,-2.8958782E1,-2.1531666E1,-9.517786E-1,8.823683E0,-8.285044E0,-3.024759E-1,3.4092758E0,7.48922E0,9.971949E0,1.3398315E1,-4.1044563E1,-3.6199013E1,-3.3037113E1,-2.582487E1,-2.1455603E1,-2.936649E1,-1.0699668E1,-2.1990932E1,-7.393797E0,-1.8273373E1,-7.1493483E0,-2.6849523E0,-3.3338344E0,-2.6818506E1,-2.3366379E1,-1.9780853E1,-3.5947223E0,1.8289036E0,4.5552955E0,1.0490006E1,-1.395306E1,-6.2186165E0,-3.4041898E0,2.202504E0,9.555313E0,3.148868E0,6.496137E0,8.333311E0,1.1891051E1,7.1982274E0,1.1450167E1,1.4490985E1,-3.7717285E0,-4.2857966E0,-3.144147E0,-3.7860296E0,-1.3509259E0,-3.3204052E0,-2.7204216E0,-1.9143416E0,-7.931851E-1,-2.217839E0,-3.119356E0,-2.7626293E0,-4.4111553E-1,-1.5169362E0,-2.366656E0,-2.0189989E0,-1.662426E0,-6.1188895E-1,-1.3912238E0,-2.108919E0,-4.274869E-1,-1.3296396E0,-5.3890103E-1,-1.213996E-1,-7.327477E-1,-2.6891782E0,-2.3774066E0,-1.80628E0,-1.7222785E0,-2.08298E0,-4.9705416E-1,-1.8946832E-1,6.803059E-2,3.1736556E-1,7.2408456E-1,3.5418987E-2,7.406268E-1,1.2097714E0,-1.0799847E0,-1.6373589E0,-4.7978035E-1,-8.9256585E-1,-5.029928E-1,-2.0508194E-1,3.6312947E-1,6.179593E-3,1.1618593E0,5.775454E-1,1.285325E-1,4.3607613E-1,5.915182E-1,6.896235E-1,7.86542E-1,8.7152785E-1,1.1002667E0,1.50305E0,1.118641E0,5.8347374E-1,1.045184E0,1.2318602E0,1.5231571E0,1.2690943E0],"categories":[],"categories_nodes":[],"categories_segments":[],"categories_sizes":[],"default_left":[0,0,0,0,0,0,0,0,0,0,0,0,0,0,0,0,0,0,0,0,0,0,0,0,0,0,0,0,0,0,0,0,0,0,0,0,0,0,0,0,0,0,0,0,0,0,0,0,0,0,0,0,0,0,0,0,0,0,0,0,0,0,0,0,0,0,0,0,0,0,0,0,0,0,0,0,0,0,0,0,0,0,0,0,0,0,0,0,0,0,0,0,0,0,0,0,0,0,0,0,0,0,0,0,0,0,0,0,0,0,0,0,0,0,0,0,0,0,0,0,0,0,0,0,0],"id":2,"left_children":[1,3,5,7,9,11,13,15,17,19,21,23,25,27,29,31,33,35,37,39,41,43,45,47,49,51,53,55,57,59,61,63,65,67,69,71,73,75,77,79,81,83,85,-1,87,89,91,93,95,97,99,101,103,105,107,109,111,113,115,117,119,121,123,-1,-1,-1,-1,-1,-1,-1,-1,-1,-1,-1,-1,-1,-1,-1,-1,-1,-1,-1,-1,-1,-1,-1,-1,-1,-1,-1,-1,-1,-1,-1,-1,-1,-1,-1,-1,-1,-1,-1,-1,-1,-1,-1,-1,-1,-1,-1,-1,-1,-1,-1,-1,-1,-1,-1,-1,-1,-1,-1,-1,-1,-1],"loss_changes":[3.0856122E6,3.877025E5,7.980545E5,7.211525E4,1.603415E5,2.2477319E5,1.1997825E5,1.513675E4,1.512825E4,2.9558234E4,9.9419375E3,1.0554481E5,1.6710019E5,1.6830516E4,1.779075E4,4.198625E3,2.9226562E3,5.902375E3,6.0503984E3,4.256086E3,5.6248203E3,1.3649062E3,2.4159688E3,1.2544285E4,2.2249953E4,4.3261375E4,6.9927305E4,2.666713E3,2.0758594E3,1.1023609E4,1.1997375E4,1.6959375E3,2.2635625E3,4.4140625E2,4.2846875E2,1.0654805E3,1.2939375E3,1.7319795E3,2.4340625E2,4.3960547E2,2.4941953E3,9.785107E3,2.2885044E3,0E0,4.1453125E1,5.0464062E2,8.889531E2,2.0371611E3,1.2829309E3,9.948406E3,1.10851875E4,7.3640312E3,1.0395773E4,8.836793E3,1.5228664E4,4.6322266E2,3.6485098E3,2.31625E2,1.7629688E2,3.2707188E3,4.5895312E3,1.6555E3,4.6818125E3,0E0,0E0,0E0,0E0,0E0,0E0,0E0,0E0,0E0,0E0,0E0,0E0,0E0,0E0,0E0,0E0,0E0,0E0,0E0,0E0,0E0,0E0,0E0,0E0,0E0,0E0,0E0,0E0,0E0,0E0,0E0,0E0,0E0,0E0,0E0,0E0,0E0,0E0,0E0,0E0,0E0,0E0,0E0,0E0,0E0,0E0,0E0,0E0,0E0,0E0,0E0,0E0,0E0,0E0,0E0,0E0,0E0,0E0,0E0,0E0,0E0,0E0],"parents":[2147483647,0,0,1,1,2,2,3,3,4,4,5,5,6,6,7,7,8,8,9,9,10,10,11,11,12,12,13,13,14,14,15,15,16,16,17,17,18,18,19,19,20,20,21,21,22,22,23,23,24,24,25,25,26,26,27,27,28,28,29,29,30,30,31,31,32,32,33,33,34,34,35,35,36,36,37,37,38,38,39,39,40,40,41,41,42,42,44,44,45,45,46,46,47,47,48,48,49,49,50,50,51,51,52,52,53,53,54,54,55,55,56,56,57,57,58,58,59,59,60,60,61,61,62,62],"right_children":[2,4,6,8,10,12,14,16,18,20,22,24,26,28,30,32,34,36,38,40,42,44,46,48,50,52,54,56,58,60,62,64,66,68,70,72,74,76,78,80,82,84,86,-1,88,90,92,94,96,98,100,102,104,106,108,110,112,114,116,118,120,122,124,-1,-1,-1,-1,-1,-1,-1,-1,-1,-1,-1,-1,-1,-1,-1,-1,-1,-1,-1,-1,-1,-1,-1,-1,-1,-1,-1,-1,-1,-1,-1,-1,-1,-1,-1,-1,-1,-1,-1,-1,-1,-1,-1,-1,-1,-1,-1,-1,-1,-1,-1,-1,-1,-1,-1,-1,-1,-1,-1,-1,-1,-1],"split_conditions":[1.0500116E-3,1.2886046E0,1.3809868E-3,8.2030735E-4,6.533867E-1,2.5993322E1,1.7718451E3,2.9E1,9.4381924E-4,5.424338E-1,9.2708494E-4,1.2407216E3,1.2339117E-3,1.3615486E3,1.4612845E-3,7.2128157E-4,4.6833332E1,5.704654E-1,6.295666E-1,3.6703284E2,1.6342205E0,8.6064416E-4,9.929528E-4,7.066772E2,1.1752705E-3,1.1411982E-3,7.541621E2,1.2299562E1,1.5680125E3,7.8666664E1,2.1886934E3,2.6096767E1,3.552784E1,9.351844E2,6.1333332E1,2.365996E2,8.7291934E-4,2.975E1,9.857095E-4,4.5708385E-1,2.867475E2,2.7599356E2,1.2333333E1,-3.3338344E0,2.4169113E1,7.5416664E1,3.932576E1,4.2634488E2,9.351844E2,7.3E1,1.856341E3,4.028852E1,3.5583332E1,4.1442337E2,4.1544807E1,5.0931464E2,1.0968859E3,1.4574446E3,1.6637396E3,2.174957E3,3.634843E1,1.9898689E3,7.8666664E1,-3.7717285E0,-4.2857966E0,-3.144147E0,-3.7860296E0,-1.3509259E0,-3.3204052E0,-2.7204216E0,-1.9143416E0,-7.931851E-1,-2.217839E0,-3.119356E0,-2.7626293E0,-4.4111553E-1,-1.5169362E0,-2.366656E0,-2.0189989E0,-1.662426E0,-6.1188895E-1,-1.3912238E0,-2.108919E0,-4.274869E-1,-1.3296396E0,-5.3890103E-1,-1.213996E-1,-7.327477E-1,-2.6891782E0,-2.3774066E0,-1.80628E0,-1.7222785E0,-2.08298E0,-4.9705416E-1,-1.8946832E-1,6.803059E-2,3.1736556E-1,7.2408456E-1,3.5418987E-2,7.406268E-1,1.2097714E0,-1.0799847E0,-1.6373589E0,-4.7978035E-1,-8.9256585E-1,-5.029928E-1,-2.0508194E-1,3.6312947E-1,6.179593E-3,1.1618593E0,5.775454E-1,1.285325E-1,4.3607613E-1,5.915182E-1,6.896235E-1,7.86542E-1,8.7152785E-1,1.1002667E0,1.50305E0,1.118641E0,5.8347374E-1,1.045184E0,1.2318602E0,1.5231571E0,1.2690943E0],"split_indices":[15,11,15,15,5,0,14,12,15,5,15,14,15,14,15,15,12,5,5,14,11,15,15,14,15,15,14,14,14,12,14,1,1,13,12,10,15,12,15,5,10,10,12,0,0,12,0,14,13,12,14,0,12,14,0,8,14,14,14,14,0,14,12,0,0,0,0,0,0,0,0,0,0,0,0,0,0,0,0,0,0,0,0,0,0,0,0,0,0,0,0,0,0,0,0,0,0,0,0,0,0,0,0,0,0,0,0,0,0,0,0,0,0,0,0,0,0,0,0,0,0,0,0,0,0],"split_type":[0,0,0,0,0,0,0,0,0,0,0,0,0,0,0,0,0,0,0,0,0,0,0,0,0,0,0,0,0,0,0,0,0,0,0,0,0,0,0,0,0,0,0,0,0,0,0,0,0,0,0,0,0,0,0,0,0,0,0,0,0,0,0,0,0,0,0,0,0,0,0,0,0,0,0,0,0,0,0,0,0,0,0,0,0,0,0,0,0,0,0,0,0,0,0,0,0,0,0,0,0,0,0,0,0,0,0,0,0,0,0,0,0,0,0,0,0,0,0,0,0,0,0,0,0],"sum_hessian":[3.456E4,5E3,2.956E4,2.462E3,2.538E3,1.7537E4,1.2023E4,1.358E3,1.104E3,1.403E3,1.135E3,4.839E3,1.2698E4,4.224E3,7.799E3,9.84E2,3.74E2,8.03E2,3.01E2,2.71E2,1.132E3,2.4E2,8.95E2,1.705E3,3.134E3,3.7E3,8.998E3,1.684E3,2.54E3,2.086E3,5.713E3,5.48E2,4.36E2,2.72E2,1.02E2,1.26E2,6.77E2,6.3E1,2.38E2,4.5E1,2.26E2,5.56E2,5.76E2,7.4E1,1.66E2,4.31E2,4.64E2,8.74E2,8.31E2,8.81E2,2.253E3,9.87E2,2.713E3,4.02E3,4.978E3,6.7E1,1.617E3,1.171E3,1.369E3,1.231E3,8.55E2,2.057E3,3.656E3,2.01E2,3.47E2,1.18E2,3.18E2,3E0,2.69E2,8.2E1,2E1,7E0,1.19E2,3.22E2,3.55E2,2.7E1,3.6E1,1.17E2,1.21E2,4E0,4.1E1,9.1E1,1.35E2,3.8E2,1.76E2,2.02E2,3.74E2,1E0,1.65E2,3.97E2,3.4E1,1.4E2,3.24E2,4.82E2,3.92E2,4.49E2,3.82E2,5.37E2,3.44E2,7.74E2,1.479E3,4.31E2,5.56E2,1.781E3,9.32E2,1.825E3,2.195E3,2.985E3,1.993E3,4.2E1,2.5E1,6.38E2,9.79E2,4.84E2,6.87E2,6.25E2,7.44E2,9.63E2,2.68E2,2.16E2,6.39E2,9.63E2,1.094E3,2.585E3,1.071E3],"tree_param":{"num_deleted":"0","num_feature":"16","num_nodes":"125","size_leaf_vector":"1"}},{"base_weights":[-4.0658284E-3,-2.0076088E1,3.604719E0,-2.8089321E1,-1.1907795E1,-6.4233667E-1,8.6613455E0,-3.2277313E1,-2.1675262E1,-5.778756E0,-2.0224113E1,4.909609E0,-2.8543797E0,4.4061537E0,1.0845021E1,-3.38018E1,-2.5555525E1,-1.4628527E1,-2.3518784E1,-1.3029108E1,-3.641698E0,-2.3670132E1,-1.8339005E1,-2.804978E-1,8.294809E0,-8.2237015E0,-1.238473E0,1.9278344E0,5.9003453E0,9.42438E0,1.2439227E1,-3.5667534E1,-3.0703047E1,-2.6523851E1,-1.7438421E1,-1.0226317E1,-1.957255E1,-2.5291666E1,-1.9424076E1,-5.581538E0,-1.5208384E1,-2.4568207E0,-7.1676264E0,-2.7493446E0,-2.215444E1,-1.6878614E1,-1.9921562E1,-2.975999E0,2.2718992E0,9.720653E0,4.3216357E0,-4.8569074E0,-1.0734412E1,-3.7459495E0,7.335842E-1,8.694902E0,1.6376436E0,4.9411407E0,6.747546E0,1.0270254E1,6.4342537E0,1.0466556E1,1.3620776E1,-3.2260492E0,-3.7400186E0,-2.5639055E0,-3.172742E0,-2.4394052E0,-2.8173654E0,-1.7737442E0,-3.6358568E-1,-1.8958858E0,-7.7021426E-1,-3.4369698E-1,-2.0022247E0,-2.6355314E0,-2.3454213E0,-1.7572145E0,-2.069901E0,-1.529432E0,-4.8595992E-1,-1.6654131E0,-7.802326E-1,-4.728473E-1,-2.1572426E-2,-8.452968E-1,9.073364E-2,-2.059317E0,-2.3401477E0,-1.7356548E0,-1.3520976E0,-2.035487E0,-1.6455351E0,-4.3717557E-1,-1.4355265E-1,9.7724006E-2,3.2000086E-1,7.213786E-1,1.2728132E0,-1.0233915E-1,7.5568694E-1,-4.7066903E-1,-1.8422321E0,-1.2449094E0,-8.182775E-1,-4.9524686E-1,-2.511526E-1,1.8852253E-1,-2.102118E-1,1.0445917E0,5.519366E-1,-4.7414277E-2,2.522993E-1,4.3491074E-1,5.2909917E-1,6.2419105E-1,7.150378E-1,8.488717E-1,1.0906105E0,9.03166E-1,4.0413818E-1,9.283953E-1,1.1355039E0,1.4049832E0,1.2410988E0],"categories":[],"categories_nodes":[],"categories_segments":[],"categories_sizes":[],"default_left":[0,0,0,0,0,0,0,0,0,0,0,0,0,0,0,0,0,0,0,0,0,0,0,0,0,0,0,0,0,0,0,0,0,0,0,0,0,0,0,0,0,0,0,0,0,0,0,0,0,0,0,0,0,0,0,0,0,0,0,0,0,0,0,0,0,0,0,0,0,0,0,0,0,0,0,0,0,0,0,0,0,0,0,0,0,0,0,0,0,0,0,0,0,0,0,0,0,0,0,0,0,0,0,0,0,0,0,0,0,0,0,0,0,0,0,0,0,0,0,0,0,0,0,0,0],"id":3,"left_children":[1,3,5,7,9,11,13,15,17,19,21,23,25,27,29,31,33,35,37,39,41,43,45,47,49,51,53,55,57,59,61,63,65,67,69,71,73,75,77,79,81,83,85,-1,87,89,91,93,95,97,99,101,103,105,107,109,111,113,115,117,119,121,123,-1,-1,-1,-1,-1,-1,-1,-1,-1,-1,-1,-1,-1,-1,-1,-1,-1,-1,-1,-1,-1,-1,-1,-1,-1,-1,-1,-1,-1,-1,-1,-1,-1,-1,-1,-1,-1,-1,-1,-1,-1,-1,-1,-1,-1,-1,-1,-1,-1,-1,-1,-1,-1,-1,-1,-1,-1,-1,-1,-1,-1,-1],"loss_changes":[2.5035195E6,3.4441425E5,6.291383E5,7.069975E4,1.3291756E5,1.9556664E5,1.24213625E5,1.559325E4,1.3335281E4,2.3256168E4,6.757125E3,7.971539E4,9.878709E4,1.6789516E4,1.9896688E4,6.4555E3,1.9033281E3,4.609824E3,5.5558438E3,5.465879E3,4.841163E3,1.6393438E3,1.3277656E3,1.2335702E4,1.5514422E4,2.2213203E4,4.329029E4,3.33983E3,2.2664297E3,1.1763344E4,9.555875E3,3.5691875E3,1.7698438E3,2.5090625E2,7.996289E1,2.4770283E3,6.785664E2,5.1146875E2,2.4071094E2,4.796267E2,2.6967852E3,4.438325E3,3.0383623E3,0E0,6.9078125E1,3.7673438E2,1.7571875E2,1.8686328E3,1.1035327E3,1.5137656E4,1.2579316E4,2.209838E3,6.496E3,5.727539E3,1.6009214E4,3.3157324E2,3.0655845E3,2.5266992E2,2.6089844E2,4.0353125E3,6.390082E3,1.5368594E3,1.1746875E3,0E0,0E0,0E0,0E0,0E0,0E0,0E0,0E0,0E0,0E0,0E0,0E0,0E0,0E0,0E0,0E0,0E0,0E0,0E0,0E0,0E0,0E0,0E0,0E0,0E0,0E0,0E0,0E0,0E0,0E0,0E0,0E0,0E0,0E0,0E0,0E0,0E0,0E0,0E0,0E0,0E0,0E0,0E0,0E0,0E0,0E0,0E0,0E0,0E0,0E0,0E0,0E0,0E0,0E0,0E0,0E0,0E0,0E0,0E0,0E0,0E0,0E0],"parents":[2147483647,0,0,1,1,2,2,3,3,4,4,5,5,6,6,7,7,8,8,9,9,10,10,11,11,12,12,13,13,14,14,15,15,16,16,17,17,18,18,19,19,20,20,21,21,22,22,23,23,24,24,25,25,26,26,27,27,28,28,29,29,30,30,31,31,32,32,33,33,34,34,35,35,36,36,37,37,38,38,39,39,40,40,41,41,42,42,44,44,45,45,46,46,47,47,48,48,49,49,50,50,51,51,52,52,53,53,54,54,55,55,56,56,57,57,58,58,59,59,60,60,61,61,62,62],"right_children":[2,4,6,8,10,12,14,16,18,20,22,24,26,28,30,32,34,36,38,40,42,44,46,48,50,52,54,56,58,60,62,64,66,68,70,72,74,76,78,80,82,84,86,-1,88,90,92,94,96,98,100,102,104,106,108,110,112,114,116,118,120,122,124,-1,-1,-1,-1,-1,-1,-1,-1,-1,-1,-1,-1,-1,-1,-1,-1,-1,-1,-1,-1,-1,-1,-1,-1,-1,-1,-1,-1,-1,-1,-1,-1,-1,-1,-1,-1,-1,-1,-1,-1,-1,-1,-1,-1,-1,-1,-1,-1,-1,-1,-1,-1,-1,-1,-1,-1,-1,-1,-1,-1,-1,-1],"split_conditions":[1.0625824E-3,1.3178148E0,1.362817E-3,8.4760936E-4,2.4169113E1,2.6911482E1,1.675326E3,3.7666668E1,2.537427E2,9.2708494E-4,9.599142E-4,1.2480449E3,1.2122279E-3,1.2166683E3,1.5026507E-3,7.5662433E-4,6.1333332E1,2.5398627E2,9.523787E-4,1.75E1,1.9051622E3,8.9688296E-4,4.3499233E1,7.541621E2,7.6833336E1,2.425E1,6.385199E2,1.156803E1,1.4574446E3,4.402205E1,2.2413813E3,2.4675255E1,3.2483036E1,1.9190121E2,9.4416664E1,1.0899806E0,9.168424E1,9.07475E-4,3.0978308E2,4.5708385E-1,8.9916664E1,4.497304E2,1.23666664E2,-2.7493446E0,3.142151E2,8.5416664E1,7.6833336E1,4.5071973E2,1.0361223E3,1.9527039E3,1.25916664E2,5.280946E1,1.1536183E-3,3.5618756E2,5.6666668E1,5.0931464E2,9.03562E2,1.31381E3,1.5567738E3,1.9051622E3,7.3416664E1,2.0139429E3,7.8666664E1,-3.2260492E0,-3.7400186E0,-2.5639055E0,-3.172742E0,-2.4394052E0,-2.8173654E0,-1.7737442E0,-3.6358568E-1,-1.8958858E0,-7.7021426E-1,-3.4369698E-1,-2.0022247E0,-2.6355314E0,-2.3454213E0,-1.7572145E0,-2.069901E0,-1.529432E0,-4.8595992E-1,-1.6654131E0,-7.802326E-1,-4.728473E-1,-2.1572426E-2,-8.452968E-1,9.073364E-2,-2.059317E0,-2.3401477E0,-1.7356548E0,-1.3520976E0,-2.035487E0,-1.6455351E0,-4.3717557E-1,-1.4355265E-1,9.7724006E-2,3.2000086E-1,7.213786E-1,1.2728132E0,-1.0233915E-1,7.5568694E-1,-4.7066903E-1,-1.8422321E0,-1.2449094E0,-8.182775E-1,-4.9524686E-1,-2.511526E-1,1.8852253E-1,-2.102118E-1,1.0445917E0,5.519366E-1,-4.7414277E-2,2.522993E-1,4.3491074E-1,5.2909917E-1,6.2419105E-1,7.150378E-1,8.488717E-1,1.0906105E0,9.03166E-1,4.0413818E-1,9.283953E-1,1.1355039E0,1.4049832E0,1.2410988E0],"split_indices":[15,11,15,15,0,1,14,12,3,15,15,13,15,14,15,15,12,10,15,12,14,15,0,14,12,12,14,13,14,0,14,1,1,3,12,11,14,15,3,5,12,13,12,0,3,12,12,14,14,14,12,0,15,14,12,8,14,14,14,14,12,14,12,0,0,0,0,0,0,0,0,0,0,0,0,0,0,0,0,0,0,0,0,0,0,0,0,0,0,0,0,0,0,0,0,0,0,0,0,0,0,0,0,0,0,0,0,0,0,0,0,0,0,0,0,0,0,0,0,0,0,0,0,0,0],"split_type":[0,0,0,0,0,0,0,0,0,0,0,0,0,0,0,0,0,0,0,0,0,0,0,0,0,0,0,0,0,0,0,0,0,0,0,0,0,0,0,0,0,0,0,0,0,0,0,0,0,0,0,0,0,0,0,0,0,0,0,0,0,0,0,0,0,0,0,0,0,0,0,0,0,0,0,0,0,0,0,0,0,0,0,0,0,0,0,0,0,0,0,0,0,0,0,0,0,0,0,0,0,0,0,0,0,0,0,0,0,0,0,0,0,0,0,0,0,0,0,0,0,0,0,0,0],"sum_hessian":[3.456E4,5.266E3,2.9294E4,2.657E3,2.609E3,1.5922E4,1.3372E4,1.605E3,1.052E3,1.503E3,1.106E3,4.536E3,1.1386E4,4.536E3,8.836E3,1.305E3,3E2,2.2E2,8.32E2,3.41E2,1.162E3,3.87E2,7.19E2,1.791E3,2.745E3,2.633E3,8.753E3,1.707E3,2.829E3,4.676E3,4.16E3,8.08E2,4.97E2,2.66E2,3.4E1,1.18E2,1.02E2,5.77E2,2.55E2,7.8E1,2.63E2,8.71E2,2.91E2,1.05E2,2.82E2,3.8E2,3.39E2,8.71E2,9.2E2,2.019E3,7.26E2,1.126E3,1.507E3,3.853E3,4.9E3,6.9E1,1.638E3,1.33E3,1.499E3,3.643E3,1.033E3,1.562E3,2.598E3,2.79E2,5.29E2,8.8E1,4.09E2,1.23E2,1.43E2,3.3E1,1E0,2.5E1,9.3E1,3E0,9.9E1,3.57E2,2.2E2,1.1E2,1.45E2,4E0,7.4E1,2.19E2,4.4E1,4.32E2,4.39E2,2.51E2,4E1,1.33E2,1.49E2,3.29E2,5.1E1,2.97E2,4.2E1,4.56E2,4.15E2,3.85E2,5.35E2,1.103E3,9.16E2,2.74E2,4.52E2,1.115E3,1.1E1,8.99E2,6.08E2,1.947E3,1.906E3,3.485E3,1.415E3,4.3E1,2.6E1,4.84E2,1.154E3,4.99E2,8.31E2,6.72E2,8.27E2,9.62E2,2.681E3,4.94E2,5.39E2,6.75E2,8.87E2,1.91E3,6.88E2],"tree_param":{"num_deleted":"0","num_feature":"16","num_nodes":"125","size_leaf_vector":"1"}},{"base_weights":[-4.93639E-3,-2.0654577E1,2.841485E0,-2.6336391E1,-1.31783285E1,-1.3570565E0,7.4656386E0,-2.9874802E1,-2.1596159E1,-7.4405193E0,-1.9899096E1,3.1706824E0,-3.783717E0,3.3670213E0,9.520131E0,-3.162243E1,-2.52047E1,-1.5872016E1,-2.288738E1,-1.3438306E1,-5.122502E0,-2.50896E1,-1.8777874E1,-1.6757852E0,5.8231425E0,-1.2134937E1,-2.3528917E0,1.1428523E0,4.887933E0,7.9069853E0,1.0800454E1,-3.3912106E1,-2.964113E1,-2.6719187E1,-2.0945871E1,-6.307807E0,-1.7685658E1,-2.4349466E1,-1.9848083E1,-1.5991239E1,-8.667644E0,-3.1191626E0,-8.472351E0,-2.9629328E0,-2.3375784E1,-1.9355244E1,-1.5382264E0,-3.7990873E0,7.321219E-2,-5.380706E-1,6.9516525E0,-1.5335659E1,-9.939175E0,-3.8264644E0,-2.5112346E-1,7.6987233E0,8.7096864E-1,4.099815E0,5.668267E0,9.162236E0,5.6418476E0,8.45747E0,1.1731292E1,-3.6046817E0,-3.125515E0,-2.4195707E0,-3.0774233E0,-1.0242065E0,-2.6864333E0,-1.504776E-1,-2.112172E0,-1.2724666E-1,-1.1929696E0,-1.9200325E0,-1.2317511E0,-2.2795784E0,-2.559929E0,-1.7722024E0,-2.1221683E0,-1.0237296E0,-1.9784502E0,-4.6537453E-1,-1.1065319E0,-5.0085104E-1,-1.5499902E-1,-9.837591E-1,-9.387649E-3,-6.128397E-1,-2.3477793E0,-1.3891089E0,-1.9667205E0,7.014877E-1,-4.056339E-1,-7.777108E-2,1.3299122E-1,-4.6911836E-1,2.9036936E-1,3.8244995E-1,8.1017506E-1,-1.4225254E0,-1.7170954E0,-7.624831E-1,-1.2088164E0,-3.1751975E-1,-6.0272336E-1,-2.2656982E-1,1.6436315E-1,9.512316E-1,5.071947E-1,-1.0865209E-1,1.8451346E-1,3.651814E-1,4.5776707E-1,6.6423655E-1,5.5182475E-1,1.0820154E0,8.370245E-1,2.5440565E-1,7.198935E-1,7.1901923E-1,9.134278E-1,1.0685513E0,1.2246952E0],"categories":[],"categories_nodes":[],"categories_segments":[],"categories_sizes":[],"default_left":[0,0,0,0,0,0,0,0,0,0,0,0,0,0,0,0,0,0,0,0,0,0,0,0,0,0,0,0,0,0,0,0,0,0,0,0,0,0,0,0,0,0,0,0,0,0,0,0,0,0,0,0,0,0,0,0,0,0,0,0,0,0,0,0,0,0,0,0,0,0,0,0,0,0,0,0,0,0,0,0,0,0,0,0,0,0,0,0,0,0,0,0,0,0,0,0,0,0,0,0,0,0,0,0,0,0,0,0,0,0,0,0,0,0,0,0,0,0,0,0,0,0,0],"id":4,"left_children":[1,3,5,7,9,11,13,15,17,19,21,23,25,27,29,31,33,35,37,39,41,43,45,47,49,51,53,55,57,59,61,63,65,67,69,71,73,75,77,79,81,83,85,-1,87,89,-1,91,93,95,97,99,101,103,105,107,109,111,113,115,117,119,121,-1,-1,-1,-1,-1,-1,-1,-1,-1,-1,-1,-1,-1,-1,-1,-1,-1,-1,-1,-1,-1,-1,-1,-1,-1,-1,-1,-1,-1,-1,-1,-1,-1,-1,-1,-1,-1,-1,-1,-1,-1,-1,-1,-1,-1,-1,-1,-1,-1,-1,-1,-1,-1,-1,-1,-1,-1,-1,-1,-1],"loss_changes":[2.0314705E6,1.7751112E5,5.897316E5,3.9240625E4,6.965E4,1.7494055E5,1.2168744E5,1.0294625E4,7.1757188E3,1.3528273E4,4.3767188E3,7.1432484E4,1.2383622E5,1.6326402E4,1.9799812E4,3.4633125E3,1.8590625E3,3.201539E3,3.205E3,3.174129E3,4.718168E3,4.3552344E2,1.0530781E3,7.3013135E3,2.5782422E4,1.0502031E4,2.7411543E4,3.4904312E3,1.7399453E3,1.2072219E4,1.16014375E4,1.4256875E3,2.5626562E3,3.7775E2,3.2033594E2,8.906797E2,1.064457E3,4.9609375E2,4.270078E2,3.638871E3,8.8203516E2,1.3085693E3,3.018877E3,0E0,4.9648438E1,7.239844E2,0E0,2.498789E3,1.1548683E3,7.7609893E3,1.09384375E4,1.0090625E3,4.3939297E3,7.4382656E3,1.3932415E4,3.2333838E2,3.5965483E3,2.8941602E2,1.7348438E2,3.5098125E3,7.3279297E3,1.2457578E3,1.9383125E3,0E0,0E0,0E0,0E0,0E0,0E0,0E0,0E0,0E0,0E0,0E0,0E0,0E0,0E0,0E0,0E0,0E0,0E0,0E0,0E0,0E0,0E0,0E0,0E0,0E0,0E0,0E0,0E0,0E0,0E0,0E0,0E0,0E0,0E0,0E0,0E0,0E0,0E0,0E0,0E0,0E0,0E0,0E0,0E0,0E0,0E0,0E0,0E0,0E0,0E0,0E0,0E0,0E0,0E0,0E0,0E0,0E0,0E0,0E0,0E0],"parents":[2147483647,0,0,1,1,2,2,3,3,4,4,5,5,6,6,7,7,8,8,9,9,10,10,11,11,12,12,13,13,14,14,15,15,16,16,17,17,18,18,19,19,20,20,21,21,22,22,23,23,24,24,25,25,26,26,27,27,28,28,29,29,30,30,31,31,32,32,33,33,34,34,35,35,36,36,37,37,38,38,39,39,40,40,41,41,42,42,44,44,45,45,47,47,48,48,49,49,50,50,51,51,52,52,53,53,54,54,55,55,56,56,57,57,58,58,59,59,60,60,61,61,62,62],"right_children":[2,4,6,8,10,12,14,16,18,20,22,24,26,28,30,32,34,36,38,40,42,44,46,48,50,52,54,56,58,60,62,64,66,68,70,72,74,76,78,80,82,84,86,-1,88,90,-1,92,94,96,98,100,102,104,106,108,110,112,114,116,118,120,122,-1,-1,-1,-1,-1,-1,-1,-1,-1,-1,-1,-1,-1,-1,-1,-1,-1,-1,-1,-1,-1,-1,-1,-1,-1,-1,-1,-1,-1,-1,-1,-1,-1,-1,-1,-1,-1,-1,-1,-1,-1,-1,-1,-1,-1,-1,-1,-1,-1,-1,-1,-1,-1,-1,-1,-1,-1,-1,-1,-1],"split_conditions":[1.013494E-3,1.2886046E0,1.3475579E-3,8.2030735E-4,6.363695E-1,3.02891E1,1.6051498E3,2.9E1,2.537427E2,5.424338E-1,8.9688296E-4,9.814058E2,1.1573825E-3,1.1554866E3,1.4785297E-3,7.0104457E-4,4.6833332E1,2.3965509E2,9.17138E-4,1.5385258E0,1.31381E3,8.2030735E-4,7.1416664E1,1.475E1,1.1110591E-3,1.0792542E-3,1.2875492E-3,1.2299562E1,1.3966656E3,4.080692E1,2.0892488E3,1E1,2.4169113E1,9.351844E2,1.5068256E3,2.2583334E1,6.8416664E1,4.010268E1,3.8956417E1,2.8264124E2,2.900571E2,3.232169E2,1.7999984E0,-2.9629328E0,2.4169113E1,2.804292E2,-1.5382264E0,3.3333334E-1,7.645618E2,1.6718786E0,1.5312019E3,4.529525E1,4.072214E1,4.0166668E1,8.153554E2,5.0931464E2,8.539619E2,1.2891442E3,1.3790004E-3,3.1839785E1,1.4219398E-3,1.8442948E3,2.3194385E3,-3.6046817E0,-3.125515E0,-2.4195707E0,-3.0774233E0,-1.0242065E0,-2.6864333E0,-1.504776E-1,-2.112172E0,-1.2724666E-1,-1.1929696E0,-1.9200325E0,-1.2317511E0,-2.2795784E0,-2.559929E0,-1.7722024E0,-2.1221683E0,-1.0237296E0,-1.9784502E0,-4.6537453E-1,-1.1065319E0,-5.0085104E-1,-1.5499902E-1,-9.837591E-1,-9.387649E-3,-6.128397E-1,-2.3477793E0,-1.3891089E0,-1.9667205E0,7.014877E-1,-4.056339E-1,-7.777108E-2,1.3299122E-1,-4.6911836E-1,2.9036936E-1,3.8244995E-1,8.1017506E-1,-1.4225254E0,-1.7170954E0,-7.624831E-1,-1.2088164E0,-3.1751975E-1,-6.0272336E-1,-2.2656982E-1,1.6436315E-1,9.512316E-1,5.071947E-1,-1.0865209E-1,1.8451346E-1,3.651814E-1,4.5776707E-1,6.6423655E-1,5.5182475E-1,1.0820154E0,8.370245E-1,2.5440565E-1,7.198935E-1,7.1901923E-1,9.134278E-1,1.0685513E0,1.2246952E0],"split_indices":[15,11,15,15,5,0,14,12,3,5,15,13,15,14,15,15,12,10,15,11,14,15,12,12,15,15,15,14,14,0,14,12,0,13,13,12,12,0,0,10,10,14,11,0,0,10,0,12,13,11,14,0,0,12,14,8,14,14,15,0,15,14,14,0,0,0,0,0,0,0,0,0,0,0,0,0,0,0,0,0,0,0,0,0,0,0,0,0,0,0,0,0,0,0,0,0,0,0,0,0,0,0,0,0,0,0,0,0,0,0,0,0,0,0,0,0,0,0,0,0,0,0,0],"split_type":[0,0,0,0,0,0,0,0,0,0,0,0,0,0,0,0,0,0,0,0,0,0,0,0,0,0,0,0,0,0,0,0,0,0,0,0,0,0,0,0,0,0,0,0,0,0,0,0,0,0,0,0,0,0,0,0,0,0,0,0,0,0,0,0,0,0,0,0,0,0,0,0,0,0,0,0,0,0,0,0,0,0,0,0,0,0,0,0,0,0,0,0,0,0,0,0,0,0,0,0,0,0,0,0,0,0,0,0,0,0,0,0,0,0,0,0,0,0,0,0,0,0,0],"sum_hessian":[3.456E4,4.186E3,3.0374E4,2.377E3,1.809E3,1.592E4,1.4454E4,1.358E3,1.019E3,9.77E2,8.32E2,5.555E3,1.0365E4,4.827E3,9.627E3,9.84E2,3.74E2,1.9E2,8.29E2,2.71E2,7.06E2,1.44E2,6.88E2,1.965E3,3.59E3,1.515E3,8.85E3,1.961E3,2.866E3,4.263E3,5.364E3,4.49E2,5.35E2,2.72E2,1.02E2,3.1E1,1.59E2,5.55E2,2.74E2,1.75E2,9.6E1,4.43E2,2.63E2,3.5E1,1.09E2,5.84E2,1.04E2,8.87E2,1.078E3,5.41E2,3.049E3,6.14E2,9.01E2,5.202E3,3.648E3,7.7E1,1.884E3,1.429E3,1.437E3,2.741E3,1.522E3,1.528E3,3.836E3,2.42E2,2.07E2,9.6E1,4.39E2,3E0,2.69E2,1E0,1.01E2,1.7E1,1.4E1,1.22E2,3.7E1,2.56E2,2.99E2,1.13E2,1.61E2,7.1E1,1.04E2,3.7E1,5.9E1,2E2,2.43E2,2.26E2,3.7E1,1E0,1.08E2,3.4E1,5.5E2,2E1,8.67E2,6.43E2,4.35E2,2.45E2,2.96E2,8.21E2,2.228E3,3.88E2,2.26E2,4.36E2,4.65E2,4.016E3,1.186E3,1.768E3,1.88E3,4.4E1,3.3E1,6.26E2,1.258E3,7.42E2,6.87E2,1.86E2,1.251E3,8.82E2,1.859E3,5.1E2,1.012E3,5.36E2,9.92E2,1.274E3,2.562E3],"tree_param":{"num_deleted":"0","num_feature":"16","num_nodes":"123","size_leaf_vector":"1"}},{"base_weights":[-5.6806924E-3,-1.7351042E1,2.743832E0,-2.2260729E1,-9.32797E0,-9.599424E-1,6.7567744E0,-2.6116339E1,-1.728187E1,-4.860781E0,-1.6354588E1,3.362975E0,-3.0061662E0,3.1520596E0,8.629958E0,-2.7542042E1,-2.1053278E1,-1.0710645E1,-1.8901472E1,-9.591501E0,-3.1947114E0,-1.7944185E1,-1.455835E1,-1.3276924E0,5.711532E0,-9.443225E0,-1.8654772E0,1.1701308E0,4.5521226E0,7.5726624E0,1.0171688E1,-3.0142776E1,-2.596423E1,-2.2206175E1,-1.6188349E1,-6.781275E0,-1.510742E1,-2.0468664E1,-1.6186403E1,-3.6872718E0,-1.1560741E1,-2.2457001E0,-5.935645E0,-1.645402E1,-1.9621367E1,-1.269821E1,-1.52690935E1,-3.297443E0,2.6882052E-1,3.137879E0,7.478427E0,-4.279758E0,-1.0576768E1,-3.9891577E0,-6.903279E-1,7.000771E0,9.3964976E-1,3.8520129E0,5.2466326E0,8.465444E0,5.439557E0,8.588822E0,1.1279394E1,-3.195876E0,-2.6805532E0,-2.1611521E0,-2.7007234E0,-1.9098543E0,-2.30743E0,-4.635277E-2,-1.6397408E0,-1.2610782E0,-4.1602275E-1,-1.2653042E0,-1.7430538E0,-2.1023152E0,-1.7744435E0,-1.4716066E0,-1.7648766E0,-5.0855273E-1,-1.6288112E-1,-9.513836E-1,-1.690218E0,-4.1869378E-1,-6.5703265E-2,-8.0600244E-1,-1.8674873E-1,-1.6722409E0,-1.1307007E0,-2.282049E0,-1.8783721E0,-1.2004929E-1,-1.2804368E0,-1.5478905E0,-1.0836428E0,7.239841E-1,-3.5386452E-1,-6.919506E-2,1.2437198E-1,-4.4233542E-2,4.9264932E-1,4.102338E-1,8.684005E-1,-1.5402771E0,-4.1080266E-1,-1.3146571E0,-9.290046E-1,-4.997073E-1,-3.1565562E-1,3.590319E-2,-3.2589936E-1,8.582225E-1,4.6320978E-1,-7.982337E-2,1.8498823E-1,3.4383625E-1,4.2107382E-1,4.7982398E-1,5.541551E-1,7.3392624E-1,1.0750303E0,4.2685968E-1,9.259111E-1,7.2549313E-1,9.217235E-1,1.1668392E0,1.0223907E0],"categories":[],"categories_nodes":[],"categories_segments":[],"categories_sizes":[],"default_left":[0,0,0,0,0,0,0,0,0,0,0,0,0,0,0,0,0,0,0,0,0,0,0,0,0,0,0,0,0,0,0,0,0,0,0,0,0,0,0,0,0,0,0,0,0,0,0,0,0,0,0,0,0,0,0,0,0,0,0,0,0,0,0,0,0,0,0,0,0,0,0,0,0,0,0,0,0,0,0,0,0,0,0,0,0,0,0,0,0,0,0,0,0,0,0,0,0,0,0,0,0,0,0,0,0,0,0,0,0,0,0,0,0,0,0,0,0,0,0,0,0,0,0,0,0,0,0],"id":5,"left_children":[1,3,5,7,9,11,13,15,17,19,21,23,25,27,29,31,33,35,37,39,41,43,45,47,49,51,53,55,57,59,61,63,65,67,69,71,73,75,77,79,81,83,85,87,89,91,93,95,97,99,101,103,105,107,109,111,113,115,117,119,121,123,125,-1,-1,-1,-1,-1,-1,-1,-1,-1,-1,-1,-1,-1,-1,-1,-1,-1,-1,-1,-1,-1,-1,-1,-1,-1,-1,-1,-1,-1,-1,-1,-1,-1,-1,-1,-1,-1,-1,-1,-1,-1,-1,-1,-1,-1,-1,-1,-1,-1,-1,-1,-1,-1,-1,-1,-1,-1,-1,-1,-1,-1,-1,-1,-1],"loss_changes":[1.6483064E6,1.8607125E5,4.4341538E5,5.5852125E4,5.6326953E4,1.3725047E5,9.6658875E4,1.133775E4,1.3452219E4,8.639236E3,1.73175E3,5.4923844E4,7.730818E4,1.358577E4,1.52814375E4,4.49025E3,1.6989219E3,4.3203477E3,4.042875E3,3.2826504E3,2.10663E3,5.9189844E2,2.4635938E2,5.2337207E3,1.5082914E4,9.23175E3,2.2325756E4,2.720097E3,1.3752812E3,1.060525E4,6.6185E3,2.04625E3,3.08E3,3.5246875E2,2.3566797E2,2.0408154E3,4.6366602E2,6.058125E2,5.594922E2,2.0182922E2,2.1789473E3,1.8692258E3,1.79119E3,8.719922E1,1.8855469E1,1.0424414E2,5.1753906E1,1.9191235E3,8.625833E2,8.6726875E3,7.9784766E3,4.8494482E2,4.173172E3,2.6587305E3,1.5529684E4,2.4868408E2,3.0908843E3,1.9816211E2,1.6357031E2,1.0061969E4,7.3535977E3,1.258375E3,8.045E2,0E0,0E0,0E0,0E0,0E0,0E0,0E0,0E0,0E0,0E0,0E0,0E0,0E0,0E0,0E0,0E0,0E0,0E0,0E0,0E0,0E0,0E0,0E0,0E0,0E0,0E0,0E0,0E0,0E0,0E0,0E0,0E0,0E0,0E0,0E0,0E0,0E0,0E0,0E0,0E0,0E0,0E0,0E0,0E0,0E0,0E0,0E0,0E0,0E0,0E0,0E0,0E0,0E0,0E0,0E0,0E0,0E0,0E0,0E0,0E0,0E0,0E0,0E0,0E0],"parents":[2147483647,0,0,1,1,2,2,3,3,4,4,5,5,6,6,7,7,8,8,9,9,10,10,11,11,12,12,13,13,14,14,15,15,16,16,17,17,18,18,19,19,20,20,21,21,22,22,23,23,24,24,25,25,26,26,27,27,28,28,29,29,30,30,31,31,32,32,33,33,34,34,35,35,36,36,37,37,38,38,39,39,40,40,41,41,42,42,43,43,44,44,45,45,46,46,47,47,48,48,49,49,50,50,51,51,52,52,53,53,54,54,55,55,56,56,57,57,58,58,59,59,60,60,61,61,62,62],"right_children":[2,4,6,8,10,12,14,16,18,20,22,24,26,28,30,32,34,36,38,40,42,44,46,48,50,52,54,56,58,60,62,64,66,68,70,72,74,76,78,80,82,84,86,88,90,92,94,96,98,100,102,104,106,108,110,112,114,116,118,120,122,124,126,-1,-1,-1,-1,-1,-1,-1,-1,-1,-1,-1,-1,-1,-1,-1,-1,-1,-1,-1,-1,-1,-1,-1,-1,-1,-1,-1,-1,-1,-1,-1,-1,-1,-1,-1,-1,-1,-1,-1,-1,-1,-1,-1,-1,-1,-1,-1,-1,-1,-1,-1,-1,-1,-1,-1,-1,-1,-1,-1,-1,-1,-1,-1,-1],"split_conditions":[1.039524E-3,1.3777899E0,1.3497814E-3,8.4760936E-4,6.481022E-1,2.8607208E1,1.6266761E3,3.5916668E1,8.11155E0,9.2708494E-4,9.857095E-4,3.1416666E1,1.17174E-3,1.1801401E3,1.5098959E-3,7.0104457E-4,5.6666668E1,2.5703577E2,9.4381924E-4,1.75E1,1.9051622E3,3.2316696E2,3.932576E1,5.4573004E2,1.1967792E-3,1.8166666E1,4.5071973E2,1.2299562E1,1.421275E3,7.8666664E1,2.2794658E3,1.3333333E1,1.3856974E3,4.910515E0,1.7398704E3,1.1644591E0,2.6953076E2,1.7620126E3,4.088871E1,7.4166665E0,3.0311884E2,3.5107697E2,1.05666664E2,2.793175E3,8.9688296E-4,2.5853696E2,8.3166664E1,3.3333334E-1,8.153554E2,1.6944486E0,1.6514603E3,1.0625824E-3,1.0847358E-3,2.1362811E2,5.1E1,5.0931464E2,8.793277E2,1.3005765E3,1.5066454E3,2.0892488E3,1.6241667E2,1.9773851E3,7.8666664E1,-3.195876E0,-2.6805532E0,-2.1611521E0,-2.7007234E0,-1.9098543E0,-2.30743E0,-4.635277E-2,-1.6397408E0,-1.2610782E0,-4.1602275E-1,-1.2653042E0,-1.7430538E0,-2.1023152E0,-1.7744435E0,-1.4716066E0,-1.7648766E0,-5.0855273E-1,-1.6288112E-1,-9.513836E-1,-1.690218E0,-4.1869378E-1,-6.5703265E-2,-8.0600244E-1,-1.8674873E-1,-1.6722409E0,-1.1307007E0,-2.282049E0,-1.8783721E0,-1.2004929E-1,-1.2804368E0,-1.5478905E0,-1.0836428E0,7.239841E-1,-3.5386452E-1,-6.919506E-2,1.2437198E-1,-4.4233542E-2,4.9264932E-1,4.102338E-1,8.684005E-1,-1.5402771E0,-4.1080266E-1,-1.3146571E0,-9.290046E-1,-4.997073E-1,-3.1565562E-1,3.590319E-2,-3.2589936E-1,8.582225E-1,4.6320978E-1,-7.982337E-2,1.8498823E-1,3.4383625E-1,4.2107382E-1,4.7982398E-1,5.541551E-1,7.3392624E-1,1.0750303E0,4.2685968E-1,9.259111E-1,7.2549313E-1,9.217235E-1,1.1668392E0,1.0223907E0],"split_indices":[15,11,15,15,5,0,14,12,0,15,15,12,15,14,15,15,12,10,15,12,14,3,0,14,15,12,14,14,14,12,14,12,2,0,13,11,10,13,0,12,10,13,12,14,15,10,12,12,14,11,14,15,15,14,12,8,14,14,14,14,12,14,12,0,0,0,0,0,0,0,0,0,0,0,0,0,0,0,0,0,0,0,0,0,0,0,0,0,0,0,0,0,0,0,0,0,0,0,0,0,0,0,0,0,0,0,0,0,0,0,0,0,0,0,0,0,0,0,0,0,0,0,0,0,0,0,0],"split_type":[0,0,0,0,0,0,0,0,0,0,0,0,0,0,0,0,0,0,0,0,0,0,0,0,0,0,0,0,0,0,0,0,0,0,0,0,0,0,0,0,0,0,0,0,0,0,0,0,0,0,0,0,0,0,0,0,0,0,0,0,0,0,0,0,0,0,0,0,0,0,0,0,0,0,0,0,0,0,0,0,0,0,0,0,0,0,0,0,0,0,0,0,0,0,0,0,0,0,0,0,0,0,0,0,0,0,0,0,0,0,0,0,0,0,0,0,0,0,0,0,0,0,0,0,0,0,0],"sum_hessian":[3.456E4,4.728E3,2.9832E4,2.932E3,1.796E3,1.5514E4,1.4318E4,1.65E3,1.282E3,1.099E3,6.97E2,4.984E3,1.053E4,4.897E3,9.421E3,1.284E3,3.66E2,2.55E2,1.027E3,2.85E2,8.14E2,3.65E2,3.32E2,1.663E3,3.321E3,1.584E3,8.946E3,2.028E3,2.869E3,5.592E3,3.829E3,4.78E2,8.06E2,2.93E2,7.3E1,1.36E2,1.19E2,6.47E2,3.8E2,7.2E1,2.13E2,6.06E2,2.08E2,1.99E2,1.66E2,9.7E1,2.35E2,7.44E2,9.19E2,1.353E3,1.968E3,2.86E2,1.298E3,3.186E3,5.76E3,7.6E1,1.952E3,1.432E3,1.437E3,3.94E3,1.652E3,1.58E3,2.249E3,3.04E2,1.74E2,1.6E2,6.46E2,6.9E1,2.24E2,1E0,7.2E1,4.1E1,9.5E1,6.1E1,5.8E1,5.32E2,1.15E2,1.95E2,1.85E2,4.2E1,3E1,1.56E2,5.7E1,2.72E2,3.34E2,1.36E2,7.2E1,1.87E2,1.2E1,2.9E1,1.37E2,1E0,9.6E1,2.22E2,1.3E1,1.6E1,7.28E2,4.63E2,4.56E2,4.51E2,9.02E2,5.19E2,1.449E3,3E0,2.83E2,4.3E2,8.68E2,1.439E3,1.747E3,4.09E3,1.67E3,4.4E1,3.2E1,6.71E2,1.281E3,6.7E2,7.62E2,5.77E2,8.6E2,2.642E3,1.298E3,1.266E3,3.86E2,5.1E2,1.07E3,1.636E3,6.13E2],"tree_param":{"num_deleted":"0","num_feature":"16","num_nodes":"127","size_leaf_vector":"1"}},{"base_weights":[-6.1876015E-3,-1.44583235E1,2.6728878E0,-2.1791788E1,-9.562627E0,-5.9292838E-2,6.7975025E0,-2.4469107E1,-1.8341068E1,-3.719546E0,-1.487702E1,3.1211483E0,-1.8710717E0,4.0263844E0,8.399544E0,-2.5972416E1,-1.9692783E1,-1.2534544E1,-2.076487E1,-7.0638013E0,-2.1564248E0,-1.6557997E1,-1.2923999E1,-1.1886394E0,5.2656765E0,-4.8901925E0,6.1174423E-2,2.4177997E0,5.036131E0,6.426231E0,8.870528E0,-2.7149033E1,-2.335786E1,-2.1318216E1,-1.5990332E1,-1.4962907E1,-7.822488E0,-1.9531685E0,-2.213439E1,-4.6384306E0,-1.3128744E1,-2.6381606E-1,-3.4327657E0,-1.5483615E1,-1.8191025E1,-1.1552511E1,-1.4039572E1,-2.9153795E0,3.0354434E-1,3.1462383E0,6.906817E0,-9.115627E0,-3.904707E0,-2.0358317E0,1.6508158E0,6.443616E0,2.2479951E0,4.4087524E0,5.500271E0,8.166342E0,4.346951E0,7.7737284E0,9.584307E0,-2.402534E0,-2.784577E0,-1.4663261E0,-2.4674542E0,-7.723195E-1,-2.1484356E0,-1.359806E-1,-1.6457714E0,-1.9626044E0,-1.3664515E0,-3.1940827E-1,-9.120262E-1,-2.2578232E0,-1.8948101E0,-8.782366E-1,-2.8245053E-1,-5.105168E-1,-1.4423465E0,-2.3328769E-1,1.9781125E-1,-8.8096267E-1,-2.0576742E-1,-1.5829444E0,-1.2119359E0,-1.9848489E0,-1.7203931E0,-1.1825763E0,-7.890181E-1,-1.3430346E0,-1.5780779E0,5.9797746E-1,-3.1351796E-1,-4.106996E-2,1.3426304E-1,4.0721855E-1,-3.7267104E-1,4.6045372E-1,8.279891E-1,-7.86576E-1,-1.1194832E0,-3.1576928E-1,-5.887557E-1,-3.017122E-1,-1.2631555E-1,2.4270761E-1,-4.915172E-2,3.541585E-1,7.7191955E-1,9.556263E-2,3.0390736E-1,4.048693E-1,4.708955E-1,5.214982E-1,5.804149E-1,7.5904137E-1,1.083191E0,5.503373E-1,1.6204111E-1,7.1196604E-1,8.222893E-1,1.0303321E0,8.1430876E-1],"categories":[],"categories_nodes":[],"categories_segments":[],"categories_sizes":[],"default_left":[0,0,0,0,0,0,0,0,0,0,0,0,0,0,0,0,0,0,0,0,0,0,0,0,0,0,0,0,0,0,0,0,0,0,0,0,0,0,0,0,0,0,0,0,0,0,0,0,0,0,0,0,0,0,0,0,0,0,0,0,0,0,0,0,0,0,0,0,0,0,0,0,0,0,0,0,0,0,0,0,0,0,0,0,0,0,0,0,0,0,0,0,0,0,0,0,0,0,0,0,0,0,0,0,0,0,0,0,0,0,0,0,0,0,0,0,0,0,0,0,0,0,0,0,0],"id":6,"left_children":[1,3,5,7,9,11,13,15,17,19,21,23,25,27,29,31,33,35,37,39,41,43,45,47,49,51,53,55,57,59,61,63,65,67,69,71,73,-1,75,77,79,81,83,85,87,89,91,93,95,97,99,101,103,105,107,109,111,113,115,117,119,121,123,-1,-1,-1,-1,-1,-1,-1,-1,-1,-1,-1,-1,-1,-1,-1,-1,-1,-1,-1,-1,-1,-1,-1,-1,-1,-1,-1,-1,-1,-1,-1,-1,-1,-1,-1,-1,-1,-1,-1,-1,-1,-1,-1,-1,-1,-1,-1,-1,-1,-1,-1,-1,-1,-1,-1,-1,-1,-1,-1,-1,-1,-1],"loss_changes":[1.3381839E6,1.9384425E5,3.2857625E5,1.95345E4,1.0064769E5,1.01075805E5,5.1543688E4,8.2125625E3,1.30958125E4,8.0664453E3,5.3605E3,5.8843766E4,6.5191723E4,6.9039297E3,6.7843125E3,2.19925E3,1.4344531E3,3.1097617E3,6.958125E2,7.176293E3,2.5475664E3,1.3131875E3,1.0465E3,5.4529995E3,1.4764508E4,1.812407E4,2.272108E4,1.1093564E3,7.3721875E2,5.109547E3,4.5758125E3,6.999375E2,2.9924531E3,2.9032812E2,6.203965E2,8.5191797E2,5.5951904E2,0E0,9.1875E0,2.6286206E3,1.3807266E3,1.9806952E3,4.639889E3,4.5385938E2,2.3933594E2,2.6696094E2,2.4525781E2,1.9367529E3,8.436462E2,1.1833102E4,7.532953E3,2.0533047E3,5.221949E3,2.2245967E3,6.448677E3,2.16979E2,1.6114097E3,1.0167383E2,9.968359E1,1.1044727E3,2.0405527E3,6.3096875E2,3.6404062E3,0E0,0E0,0E0,0E0,0E0,0E0,0E0,0E0,0E0,0E0,0E0,0E0,0E0,0E0,0E0,0E0,0E0,0E0,0E0,0E0,0E0,0E0,0E0,0E0,0E0,0E0,0E0,0E0,0E0,0E0,0E0,0E0,0E0,0E0,0E0,0E0,0E0,0E0,0E0,0E0,0E0,0E0,0E0,0E0,0E0,0E0,0E0,0E0,0E0,0E0,0E0,0E0,0E0,0E0,0E0,0E0,0E0,0E0,0E0,0E0,0E0,0E0],"parents":[2147483647,0,0,1,1,2,2,3,3,4,4,5,5,6,6,7,7,8,8,9,9,10,10,11,11,12,12,13,13,14,14,15,15,16,16,17,17,18,18,19,19,20,20,21,21,22,22,23,23,24,24,25,25,26,26,27,27,28,28,29,29,30,30,31,31,32,32,33,33,34,34,35,35,36,36,38,38,39,39,40,40,41,41,42,42,43,43,44,44,45,45,46,46,47,47,48,48,49,49,50,50,51,51,52,52,53,53,54,54,55,55,56,56,57,57,58,58,59,59,60,60,61,61,62,62],"right_children":[2,4,6,8,10,12,14,16,18,20,22,24,26,28,30,32,34,36,38,40,42,44,46,48,50,52,54,56,58,60,62,64,66,68,70,72,74,-1,76,78,80,82,84,86,88,90,92,94,96,98,100,102,104,106,108,110,112,114,116,118,120,122,124,-1,-1,-1,-1,-1,-1,-1,-1,-1,-1,-1,-1,-1,-1,-1,-1,-1,-1,-1,-1,-1,-1,-1,-1,-1,-1,-1,-1,-1,-1,-1,-1,-1,-1,-1,-1,-1,-1,-1,-1,-1,-1,-1,-1,-1,-1,-1,-1,-1,-1,-1,-1,-1,-1,-1,-1,-1,-1,-1,-1,-1,-1],"split_conditions":[1.0680687E-3,8.862349E-4,1.3865967E-3,7.91006E-4,6.686308E-1,3.3737797E1,1.8190553E3,2.9E1,2.4675255E1,1.4993038E0,9.857095E-4,1.071864E3,1.265967E-3,1.3966656E3,1.4485117E-3,1.0899806E0,4.8166668E1,1.4239501E0,4.1544807E1,2.6709985E2,2.8264124E2,4.3586575E1,3.1662463E2,5.0539157E2,1.2319209E-3,1.1536183E-3,8.024823E2,1.2299562E1,1.5924244E3,7.8666664E1,2.227845E3,2.6372385E2,2.8628326E2,9.351844E2,1.550304E3,1.0899806E0,1.75E1,-1.9531685E0,4.2916668E1,1.2886046E0,1.575E1,6.7236237E2,1.6718786E0,7.1416664E1,9.2708494E-4,8.9916664E1,3.5173245E2,3.3333334E-1,8.539619E2,2.0452223E2,5.0666668E1,4.456282E1,3.3833332E1,4.859992E2,6.025E1,1.459216E-3,1.1200741E3,1.4941163E3,1.7123829E3,2.253435E3,4.520447E1,2.0016188E3,7.8666664E1,-2.402534E0,-2.784577E0,-1.4663261E0,-2.4674542E0,-7.723195E-1,-2.1484356E0,-1.359806E-1,-1.6457714E0,-1.9626044E0,-1.3664515E0,-3.1940827E-1,-9.120262E-1,-2.2578232E0,-1.8948101E0,-8.782366E-1,-2.8245053E-1,-5.105168E-1,-1.4423465E0,-2.3328769E-1,1.9781125E-1,-8.8096267E-1,-2.0576742E-1,-1.5829444E0,-1.2119359E0,-1.9848489E0,-1.7203931E0,-1.1825763E0,-7.890181E-1,-1.3430346E0,-1.5780779E0,5.9797746E-1,-3.1351796E-1,-4.106996E-2,1.3426304E-1,4.0721855E-1,-3.7267104E-1,4.6045372E-1,8.279891E-1,-7.86576E-1,-1.1194832E0,-3.1576928E-1,-5.887557E-1,-3.017122E-1,-1.2631555E-1,2.4270761E-1,-4.915172E-2,3.541585E-1,7.7191955E-1,9.556263E-2,3.0390736E-1,4.048693E-1,4.708955E-1,5.214982E-1,5.804149E-1,7.5904137E-1,1.083191E0,5.503373E-1,1.6204111E-1,7.1196604E-1,8.222893E-1,1.0303321E0,8.1430876E-1],"split_indices":[15,15,15,15,5,0,14,12,1,11,15,14,15,14,15,11,12,11,0,10,10,0,3,13,15,15,14,14,14,12,14,10,10,13,13,11,12,0,12,11,12,13,11,12,15,12,3,12,14,3,12,0,12,14,12,15,14,14,14,14,0,14,12,0,0,0,0,0,0,0,0,0,0,0,0,0,0,0,0,0,0,0,0,0,0,0,0,0,0,0,0,0,0,0,0,0,0,0,0,0,0,0,0,0,0,0,0,0,0,0,0,0,0,0,0,0,0,0,0,0,0,0,0,0,0],"split_type":[0,0,0,0,0,0,0,0,0,0,0,0,0,0,0,0,0,0,0,0,0,0,0,0,0,0,0,0,0,0,0,0,0,0,0,0,0,0,0,0,0,0,0,0,0,0,0,0,0,0,0,0,0,0,0,0,0,0,0,0,0,0,0,0,0,0,0,0,0,0,0,0,0,0,0,0,0,0,0,0,0,0,0,0,0,0,0,0,0,0,0,0,0,0,0,0,0,0,0,0,0,0,0,0,0,0,0,0,0,0,0,0,0,0,0,0,0,0,0,0,0,0,0,0,0],"sum_hessian":[3.456E4,5.404E3,2.9156E4,2.162E3,3.242E3,1.7539E4,1.1617E4,1.214E3,9.48E2,1.545E3,1.697E3,6.365E3,1.1174E4,4.257E3,7.36E3,9.2E2,2.94E2,2.81E2,6.67E2,4.91E2,1.054E3,9.08E2,7.89E2,2.115E3,4.25E3,4.36E3,6.814E3,1.643E3,2.614E3,1.421E3,5.939E3,6.28E2,2.92E2,2.01E2,9.3E1,1.84E2,9.7E1,3.59E2,3.08E2,3.52E2,1.39E2,4.25E2,6.29E2,5.54E2,3.54E2,3.59E2,4.3E2,9.8E2,1.135E3,1.856E3,2.394E3,8.23E2,3.537E3,2.938E3,3.876E3,6.5E1,1.578E3,1.116E3,1.498E3,7.72E2,6.49E2,2.346E3,3.593E3,1.21E2,5.07E2,4E1,2.52E2,3E0,1.98E2,3E0,9E1,3.7E1,1.47E2,2.2E1,7.5E1,2.65E2,4.3E1,1.06E2,2.46E2,2E1,1.19E2,2.21E2,2.04E2,1.27E2,5.02E2,4.99E2,5.5E1,1.25E2,2.29E2,3.32E2,2.7E1,3.25E2,1.05E2,2.3E1,9.57E2,6.73E2,4.62E2,1.636E3,2.2E2,8.96E2,1.498E3,5.17E2,3.06E2,2.571E3,9.66E2,1.293E3,1.645E3,2.845E3,1.031E3,2.1E1,4.4E1,6E2,9.78E2,5.14E2,6.02E2,7.82E2,7.16E2,6.38E2,1.34E2,4.55E2,1.94E2,9.62E2,1.384E3,2.393E3,1.2E3],"tree_param":{"num_deleted":"0","num_feature":"16","num_nodes":"125","size_leaf_vector":"1"}},{"base_weights":[-6.495378E-3,-1.5111491E1,2.075632E0,-1.9272108E1,-9.636874E0,-1.0870427E0,5.3777847E0,-2.2446959E1,-1.6389164E1,-5.5047197E0,-1.4596806E1,2.193201E0,-2.953776E0,2.3154829E0,6.8974476E0,-2.357965E1,-1.8551125E1,-1.4361602E1,-1.844603E1,-7.962131E0,-2.4330115E0,-1.77369E1,-1.3558613E1,-1.3341902E0,4.0578504E0,-8.920144E0,-1.8942679E0,5.0845784E-1,3.4523194E0,6.0225224E0,8.2057905E0,-2.493951E1,-2.1923607E1,-1.6291672E1,-1.993851E0,-1.6449436E1,-1.0493275E1,-1.9642801E1,-1.6945108E1,-3.4133918E0,-1.2102745E1,-6.707993E-1,-4.2325644E0,-2.1914992E0,-1.672396E1,-1.3925021E1,-1.0518951E1,-3.2872317E0,-3.0224437E-1,1.3345584E0,5.559517E0,-1.098528E1,-7.068799E0,-3.1896355E0,-6.7100984E-1,5.914968E0,2.836473E-1,2.7233665E0,3.9815552E0,6.6812572E0,3.8441124E0,7.04264E0,9.292424E0,-2.132763E0,-2.5634985E0,-1.5782437E0,-2.3404949E0,-1.8605607E0,-1.3089548E0,-1.7545513E0,-1.4627156E0,-3.2143527E-1,-1.1772169E0,-1.7541045E0,-2.0282123E0,4.9142648E-2,-1.7009137E0,-2.1251011E-1,-5.271787E-1,-1.440975E0,-9.398492E-1,-2.4467175E-1,1.2253227E-1,-8.236405E-1,-1.7099333E-1,-1.3782262E0,-1.7460864E0,-1.1556996E0,-1.4404453E0,-1.0677971E0,-5.1859015E-1,5.355283E-1,-3.5601348E-1,-9.437948E-2,6.619318E-2,2.8382683E-1,-5.313378E-1,2.7990147E-1,6.6803855E-1,-1.0276994E0,-1.3214632E0,-4.9866375E-1,-8.62628E-1,-2.4218069E-1,-4.641347E-1,-2.1674712E-1,6.436445E-2,7.210115E-1,4.2756358E-1,-1.373251E-1,9.058603E-2,2.2984202E-1,3.034024E-1,5.1835656E-1,3.829327E-1,5.3051174E-1,7.275964E-1,5.4784596E-2,4.9497566E-1,5.546234E-1,7.4565566E-1,9.7238046E-1,8.322636E-1],"categories":[],"categories_nodes":[],"categories_segments":[],"categories_sizes":[],"default_left":[0,0,0,0,0,0,0,0,0,0,0,0,0,0,0,0,0,0,0,0,0,0,0,0,0,0,0,0,0,0,0,0,0,0,0,0,0,0,0,0,0,0,0,0,0,0,0,0,0,0,0,0,0,0,0,0,0,0,0,0,0,0,0,0,0,0,0,0,0,0,0,0,0,0,0,0,0,0,0,0,0,0,0,0,0,0,0,0,0,0,0,0,0,0,0,0,0,0,0,0,0,0,0,0,0,0,0,0,0,0,0,0,0,0,0,0,0,0,0,0,0,0,0],"id":7,"left_children":[1,3,5,7,9,11,13,15,17,19,21,23,25,27,29,31,33,35,37,39,41,43,45,47,49,51,53,55,57,59,61,63,65,67,-1,69,71,73,75,77,79,81,83,-1,85,87,89,91,93,95,97,99,101,103,105,107,109,111,113,115,117,119,121,-1,-1,-1,-1,-1,-1,-1,-1,-1,-1,-1,-1,-1,-1,-1,-1,-1,-1,-1,-1,-1,-1,-1,-1,-1,-1,-1,-1,-1,-1,-1,-1,-1,-1,-1,-1,-1,-1,-1,-1,-1,-1,-1,-1,-1,-1,-1,-1,-1,-1,-1,-1,-1,-1,-1,-1,-1,-1,-1,-1],"loss_changes":[1.086993E6,9.5184875E4,3.1723128E5,2.139775E4,3.7015953E4,9.5016234E4,6.913747E4,4.544625E3,4.948125E3,7.446043E3,2.4392656E3,3.7022727E4,6.249557E4,1.0125906E4,1.1318656E4,1.4146875E3,4.870625E2,4.9478438E3,7.754375E2,1.0298871E4,1.3956575E3,4.8415625E2,5.4628125E2,3.923055E3,1.5050031E4,5.6228594E3,1.3306654E4,2.3137363E3,1.1565508E3,8.519703E3,4.9611562E3,6.3640625E2,3.2785781E3,5.270488E2,0E0,5.6227344E2,2.0566816E3,9.705469E1,3.2208594E2,6.184592E2,1.655082E3,7.572861E2,2.1877627E3,0E0,1.1919922E2,4.6021094E2,4.836426E0,1.6063804E3,7.8929834E2,1.3110586E4,7.32375E3,9.742422E2,2.5156523E3,4.5354766E3,8.502225E3,1.3053369E2,1.8878708E3,1.6147461E2,3.0054688E2,3.7022969E3,5.044918E3,1.1509609E3,7.779375E2,0E0,0E0,0E0,0E0,0E0,0E0,0E0,0E0,0E0,0E0,0E0,0E0,0E0,0E0,0E0,0E0,0E0,0E0,0E0,0E0,0E0,0E0,0E0,0E0,0E0,0E0,0E0,0E0,0E0,0E0,0E0,0E0,0E0,0E0,0E0,0E0,0E0,0E0,0E0,0E0,0E0,0E0,0E0,0E0,0E0,0E0,0E0,0E0,0E0,0E0,0E0,0E0,0E0,0E0,0E0,0E0,0E0,0E0,0E0,0E0],"parents":[2147483647,0,0,1,1,2,2,3,3,4,4,5,5,6,6,7,7,8,8,9,9,10,10,11,11,12,12,13,13,14,14,15,15,16,16,17,17,18,18,19,19,20,20,21,21,22,22,23,23,24,24,25,25,26,26,27,27,28,28,29,29,30,30,31,31,32,32,33,33,35,35,36,36,37,37,38,38,39,39,40,40,41,41,42,42,44,44,45,45,46,46,47,47,48,48,49,49,50,50,51,51,52,52,53,53,54,54,55,55,56,56,57,57,58,58,59,59,60,60,61,61,62,62],"right_children":[2,4,6,8,10,12,14,16,18,20,22,24,26,28,30,32,34,36,38,40,42,44,46,48,50,52,54,56,58,60,62,64,66,68,-1,70,72,74,76,78,80,82,84,-1,86,88,90,92,94,96,98,100,102,104,106,108,110,112,114,116,118,120,122,-1,-1,-1,-1,-1,-1,-1,-1,-1,-1,-1,-1,-1,-1,-1,-1,-1,-1,-1,-1,-1,-1,-1,-1,-1,-1,-1,-1,-1,-1,-1,-1,-1,-1,-1,-1,-1,-1,-1,-1,-1,-1,-1,-1,-1,-1,-1,-1,-1,-1,-1,-1,-1,-1,-1,-1,-1,-1,-1,-1],"split_conditions":[1.013494E-3,1.2886046E0,1.342076E-3,7.91006E-4,2.6911482E1,3.0993042E1,4.5416668E1,2.8333334E1,2.7517624E2,1.6001874E0,9.17138E-4,9.351844E2,1.1573825E-3,1.1083607E3,1.5074279E-3,1.0193268E0,2.7953574E2,1.1446723E0,8.6064416E-4,2.7571356E2,2.9391577E2,8.2030735E-4,7.5416664E1,3.6703284E2,1.742084E0,1.089993E-3,1.2695647E-3,1.156803E1,1.3255973E3,4.402205E1,2.330943E3,2.58109E2,2.8628326E2,1.0670968E0,-1.993851E0,1.0670968E0,2.4878989E2,3.6471184E1,5.843766E2,2.9416666E1,1.463666E0,1.7083334E1,1.8072395E0,-2.1914992E0,2.964908E2,3.6711624E1,8.9916664E1,3.3333334E-1,7.410883E2,2.726756E2,1.5680125E3,4.7730236E1,3.994546E1,4.2546623E1,7.1718756E2,3.4793695E2,7.777895E2,1.2049623E3,1.3682162E-3,1.8793497E3,1.4219398E-3,1.9164807E3,7.8666664E1,-2.132763E0,-2.5634985E0,-1.5782437E0,-2.3404949E0,-1.8605607E0,-1.3089548E0,-1.7545513E0,-1.4627156E0,-3.2143527E-1,-1.1772169E0,-1.7541045E0,-2.0282123E0,4.9142648E-2,-1.7009137E0,-2.1251011E-1,-5.271787E-1,-1.440975E0,-9.398492E-1,-2.4467175E-1,1.2253227E-1,-8.236405E-1,-1.7099333E-1,-1.3782262E0,-1.7460864E0,-1.1556996E0,-1.4404453E0,-1.0677971E0,-5.1859015E-1,5.355283E-1,-3.5601348E-1,-9.437948E-2,6.619318E-2,2.8382683E-1,-5.313378E-1,2.7990147E-1,6.6803855E-1,-1.0276994E0,-1.3214632E0,-4.9866375E-1,-8.62628E-1,-2.4218069E-1,-4.641347E-1,-2.1674712E-1,6.436445E-2,7.210115E-1,4.2756358E-1,-1.373251E-1,9.058603E-2,2.2984202E-1,3.034024E-1,5.1835656E-1,3.829327E-1,5.3051174E-1,7.275964E-1,5.4784596E-2,4.9497566E-1,5.546234E-1,7.4565566E-1,9.7238046E-1,8.322636E-1],"split_indices":[15,11,15,15,1,0,12,12,10,11,15,13,15,14,15,11,10,11,15,10,10,15,12,14,11,15,15,13,14,0,14,10,10,11,0,11,10,0,2,12,11,12,11,0,10,0,12,12,14,10,14,0,0,0,14,10,14,14,15,14,15,14,12,0,0,0,0,0,0,0,0,0,0,0,0,0,0,0,0,0,0,0,0,0,0,0,0,0,0,0,0,0,0,0,0,0,0,0,0,0,0,0,0,0,0,0,0,0,0,0,0,0,0,0,0,0,0,0,0,0,0,0,0],"split_type":[0,0,0,0,0,0,0,0,0,0,0,0,0,0,0,0,0,0,0,0,0,0,0,0,0,0,0,0,0,0,0,0,0,0,0,0,0,0,0,0,0,0,0,0,0,0,0,0,0,0,0,0,0,0,0,0,0,0,0,0,0,0,0,0,0,0,0,0,0,0,0,0,0,0,0,0,0,0,0,0,0,0,0,0,0,0,0,0,0,0,0,0,0,0,0,0,0,0,0,0,0,0,0,0,0,0,0,0,0,0,0,0,0,0,0,0,0,0,0,0,0,0,0],"sum_hessian":[3.456E4,4.186E3,3.0374E4,2.377E3,1.809E3,1.5515E4,1.4859E4,1.128E3,1.249E3,9.88E2,8.21E2,5.627E3,9.888E3,4.929E3,9.93E3,8.7E2,2.58E2,6.33E2,6.16E2,5.48E2,4.4E2,2E2,6.21E2,1.946E3,3.681E3,1.49E3,8.398E3,1.904E3,3.025E3,5.954E3,3.976E3,4.7E2,4E2,1.03E2,1.55E2,4.09E2,2.24E2,3.36E2,2.8E2,2.62E2,2.86E2,2.23E2,2.17E2,3.5E1,1.65E2,5.51E2,7E1,6.72E2,1.274E3,1.309E3,2.372E3,7.02E2,7.88E2,4.078E3,4.32E3,7.5E1,1.829E3,1.275E3,1.75E3,4.57E3,1.384E3,1.924E3,2.052E3,8.1E1,3.89E2,8E1,3.2E2,5.7E1,4.6E1,2.5E2,1.59E2,3.4E1,1.9E2,8.5E1,2.51E2,1E0,2.79E2,1.56E2,1.06E2,1.52E2,1.34E2,1.15E2,1.08E2,8.3E1,1.34E2,3.7E1,1.28E2,9.7E1,4.54E2,6.7E1,3E0,2E1,6.52E2,7.65E2,5.09E2,1.068E3,2.41E2,6.86E2,1.686E3,5.37E2,1.65E2,3.39E2,4.49E2,2.669E3,1.409E3,2.02E3,2.3E3,4E1,3.5E1,4.99E2,1.33E3,5.42E2,7.33E2,1.93E2,1.557E3,1.382E3,3.188E3,3.48E2,1.036E3,4.2E2,1.504E3,1.414E3,6.38E2],"tree_param":{"num_deleted":"0","num_feature":"16","num_nodes":"123","size_leaf_vector":"1"}},{"base_weights":[-6.82812E-3,-1.1745875E1,2.1693065E0,-1.6055271E1,-6.232962E0,-6.0703987E-1,4.8405066E0,-1.9100368E1,-1.2408481E1,-2.9646134E0,-1.150297E1,2.8647096E0,-2.1129239E0,2.0408301E0,6.189743E0,-2.0072355E1,-1.5041947E1,-7.635799E0,-1.3564741E1,-6.5092044E0,-1.8219255E0,-1.3105634E1,-1.041146E1,-1.8768896E-1,5.006986E0,-5.0984926E0,-1.134673E0,3.1360018E-1,2.9956164E0,5.0057755E0,6.9948196E0,-2.2114346E1,-1.88804E1,-1.5896254E1,-1.1263918E1,-1.2830567E1,-4.443464E0,-1.4595157E1,-1.1581085E1,-2.6636338E0,-8.188655E0,-1.0682901E0,-4.35753E0,-1.1805582E1,-1.4299707E1,-8.454643E0,-1.1035156E1,-1.8581471E0,1.1832657E0,6.2345233E0,1.6833814E0,-2.9811645E0,-6.6204123E0,-2.7540348E0,-1.2346436E-1,4.9610405E0,5.7272427E-2,2.2926788E0,3.4930916E0,6.6910534E0,3.9213321E0,5.3779044E0,7.666874E0,-2.4169438E0,-1.994191E0,-1.531732E0,-1.9657477E0,-1.3539038E0,-1.6656626E0,-1.1535562E0,-1.9858412E-1,2.2796059E-2,-1.3224603E0,-1.7332453E-1,-6.616265E-1,-1.4930146E0,-1.0308694E0,-1.0799848E0,-1.315738E0,-3.6078557E-1,-1.0489925E-1,-3.5546288E-1,-9.8151964E-1,-2.4035485E-1,1.4188515E-1,-5.2648234E-1,2.5924203E-1,-1.0132756E0,-1.2498413E0,-1.715737E0,-1.3589886E0,-8.996958E-1,-6.327545E-1,-1.1411773E0,-7.8835934E-1,5.971429E-1,-2.004273E-1,2.8381366E-2,1.6263992E-1,4.900743E-1,9.5976925E-1,-3.7877586E-2,7.2399384E-1,-3.8861695E-1,-1.5727217E-1,-5.537774E-1,-8.7338775E-1,-3.6963958E-1,-2.0847844E-1,1.0807294E-1,-1.3587107E-1,6.1548847E-1,3.0845904E-1,-1.7428768E-1,5.5328757E-2,1.9633453E-1,2.627711E-1,4.524196E-1,3.3515075E-1,5.256669E-1,7.468712E-1,5.1517284E-1,2.1505952E-1,4.5050454E-1,5.9378433E-1,6.957745E-1,8.048482E-1],"categories":[],"categories_nodes":[],"categories_segments":[],"categories_sizes":[],"default_left":[0,0,0,0,0,0,0,0,0,0,0,0,0,0,0,0,0,0,0,0,0,0,0,0,0,0,0,0,0,0,0,0,0,0,0,0,0,0,0,0,0,0,0,0,0,0,0,0,0,0,0,0,0,0,0,0,0,0,0,0,0,0,0,0,0,0,0,0,0,0,0,0,0,0,0,0,0,0,0,0,0,0,0,0,0,0,0,0,0,0,0,0,0,0,0,0,0,0,0,0,0,0,0,0,0,0,0,0,0,0,0,0,0,0,0,0,0,0,0,0,0,0,0,0,0,0,0],"id":8,"left_children":[1,3,5,7,9,11,13,15,17,19,21,23,25,27,29,31,33,35,37,39,41,43,45,47,49,51,53,55,57,59,61,63,65,67,69,71,73,75,77,79,81,83,85,87,89,91,93,95,97,99,101,103,105,107,109,111,113,115,117,119,121,123,125,-1,-1,-1,-1,-1,-1,-1,-1,-1,-1,-1,-1,-1,-1,-1,-1,-1,-1,-1,-1,-1,-1,-1,-1,-1,-1,-1,-1,-1,-1,-1,-1,-1,-1,-1,-1,-1,-1,-1,-1,-1,-1,-1,-1,-1,-1,-1,-1,-1,-1,-1,-1,-1,-1,-1,-1,-1,-1,-1,-1,-1,-1,-1,-1],"loss_changes":[8.829121E5,1.2830831E5,2.162364E5,3.3443938E4,4.0838977E4,7.475674E4,5.6119938E4,6.2108125E3,7.528453E3,5.9259707E3,1.4519297E3,2.8289008E4,2.912171E4,7.9709805E3,9.5225625E3,2.81725E3,8.634531E2,4.4536846E3,2.1038906E3,2.2838525E3,2.1164678E3,3.962422E2,5.7185547E2,4.0900674E3,1.0360477E4,7.9105977E3,1.2302291E4,2.0510793E3,1.0805898E3,7.3974297E3,6.44175E3,1.6788594E3,2.0412812E3,2.4228906E2,1.3587305E2,5.3300195E2,9.8962305E2,8.914375E2,3.3201562E2,1.6391913E2,1.8343926E3,2.8494873E3,1.6152812E3,8.197266E1,1.4209375E2,9.9956055E1,3.9666797E2,9.3297095E2,3.9054272E2,8.278477E3,7.8747285E3,1.3080508E3,3.2259297E3,1.8136855E3,6.8825317E3,1.8263184E2,1.459072E3,1.3750684E2,2.5068164E2,1.7332109E3,5.379039E3,8.31E2,1.0838125E3,0E0,0E0,0E0,0E0,0E0,0E0,0E0,0E0,0E0,0E0,0E0,0E0,0E0,0E0,0E0,0E0,0E0,0E0,0E0,0E0,0E0,0E0,0E0,0E0,0E0,0E0,0E0,0E0,0E0,0E0,0E0,0E0,0E0,0E0,0E0,0E0,0E0,0E0,0E0,0E0,0E0,0E0,0E0,0E0,0E0,0E0,0E0,0E0,0E0,0E0,0E0,0E0,0E0,0E0,0E0,0E0,0E0,0E0,0E0,0E0,0E0,0E0,0E0,0E0],"parents":[2147483647,0,0,1,1,2,2,3,3,4,4,5,5,6,6,7,7,8,8,9,9,10,10,11,11,12,12,13,13,14,14,15,15,16,16,17,17,18,18,19,19,20,20,21,21,22,22,23,23,24,24,25,25,26,26,27,27,28,28,29,29,30,30,31,31,32,32,33,33,34,34,35,35,36,36,37,37,38,38,39,39,40,40,41,41,42,42,43,43,44,44,45,45,46,46,47,47,48,48,49,49,50,50,51,51,52,52,53,53,54,54,55,55,56,56,57,57,58,58,59,59,60,60,61,61,62,62],"right_children":[2,4,6,8,10,12,14,16,18,20,22,24,26,28,30,32,34,36,38,40,42,44,46,48,50,52,54,56,58,60,62,64,66,68,70,72,74,76,78,80,82,84,86,88,90,92,94,96,98,100,102,104,106,108,110,112,114,116,118,120,122,124,126,-1,-1,-1,-1,-1,-1,-1,-1,-1,-1,-1,-1,-1,-1,-1,-1,-1,-1,-1,-1,-1,-1,-1,-1,-1,-1,-1,-1,-1,-1,-1,-1,-1,-1,-1,-1,-1,-1,-1,-1,-1,-1,-1,-1,-1,-1,-1,-1,-1,-1,-1,-1,-1,-1,-1,-1,-1,-1,-1,-1,-1,-1,-1,-1],"split_conditions":[1.0680687E-3,1.3777899E0,1.342076E-3,8.4760936E-4,2.6096767E1,2.7482952E1,1.5680125E3,3.7666668E1,2.5703577E2,9.4381924E-4,9.857095E-4,1.2586705E3,1.2095527E-3,1.071864E3,1.4676264E-3,7.0104457E-4,5.775E1,1.1090446E0,9.523787E-4,1.75E1,1.9051622E3,1.6736936E3,2.9324933E2,7.1718756E2,7.6833336E1,2.425E1,4.985317E2,3.3333334E-1,1.3005765E3,3.5723995E1,2.0645547E3,1E1,2.962722E1,2.675339E2,8.9916664E1,1.562163E2,2.975E1,6.3916668E1,2.8177948E2,2.910771E2,2.8240228E2,6.2045764E2,1.3041667E2,3.6711624E1,8.9688296E-4,1.4865562E0,8.3166664E1,3.3333334E-1,8.8942224E2,2.1506418E3,1.5491667E2,2.1776045E2,4.4647003E1,2.3572473E2,3.9845474E1,3.5966437E2,7.1718756E2,1.192593E3,1.3682162E-3,1.9773851E3,7.4583336E1,1.8317526E3,2.3194385E3,-2.4169438E0,-1.994191E0,-1.531732E0,-1.9657477E0,-1.3539038E0,-1.6656626E0,-1.1535562E0,-1.9858412E-1,2.2796059E-2,-1.3224603E0,-1.7332453E-1,-6.616265E-1,-1.4930146E0,-1.0308694E0,-1.0799848E0,-1.315738E0,-3.6078557E-1,-1.0489925E-1,-3.5546288E-1,-9.8151964E-1,-2.4035485E-1,1.4188515E-1,-5.2648234E-1,2.5924203E-1,-1.0132756E0,-1.2498413E0,-1.715737E0,-1.3589886E0,-8.996958E-1,-6.327545E-1,-1.1411773E0,-7.8835934E-1,5.971429E-1,-2.004273E-1,2.8381366E-2,1.6263992E-1,4.900743E-1,9.5976925E-1,-3.7877586E-2,7.2399384E-1,-3.8861695E-1,-1.5727217E-1,-5.537774E-1,-8.7338775E-1,-3.6963958E-1,-2.0847844E-1,1.0807294E-1,-1.3587107E-1,6.1548847E-1,3.0845904E-1,-1.7428768E-1,5.5328757E-2,1.9633453E-1,2.627711E-1,4.524196E-1,3.3515075E-1,5.256669E-1,7.468712E-1,5.1517284E-1,2.1505952E-1,4.5050454E-1,5.9378433E-1,6.957745E-1,8.048482E-1],"split_indices":[15,11,15,15,1,1,14,12,10,15,15,13,15,14,15,15,12,11,15,12,14,2,10,14,12,12,14,12,14,0,14,12,1,10,12,3,12,12,10,14,10,13,12,0,15,11,12,12,13,14,12,13,0,14,0,10,14,14,15,14,12,14,14,0,0,0,0,0,0,0,0,0,0,0,0,0,0,0,0,0,0,0,0,0,0,0,0,0,0,0,0,0,0,0,0,0,0,0,0,0,0,0,0,0,0,0,0,0,0,0,0,0,0,0,0,0,0,0,0,0,0,0,0,0,0,0,0],"split_type":[0,0,0,0,0,0,0,0,0,0,0,0,0,0,0,0,0,0,0,0,0,0,0,0,0,0,0,0,0,0,0,0,0,0,0,0,0,0,0,0,0,0,0,0,0,0,0,0,0,0,0,0,0,0,0,0,0,0,0,0,0,0,0,0,0,0,0,0,0,0,0,0,0,0,0,0,0,0,0,0,0,0,0,0,0,0,0,0,0,0,0,0,0,0,0,0,0,0,0,0,0,0,0,0,0,0,0,0,0,0,0,0,0,0,0,0,0,0,0,0,0,0,0,0,0,0,0],"sum_hessian":[3.456E4,5.404E3,2.9156E4,3.032E3,2.372E3,1.4297E4,1.4859E4,1.65E3,1.382E3,1.465E3,9.07E2,4.325E3,9.972E3,4.833E3,1.0026E4,1.328E3,3.22E2,2.71E2,1.111E3,3.56E2,1.109E3,3.63E2,5.44E2,1.784E3,2.541E3,2.46E3,7.512E3,1.721E3,3.112E3,4.061E3,5.965E3,4.83E2,8.45E2,2.6E2,6.2E1,1.02E2,1.69E2,7.27E2,3.84E2,1.09E2,2.47E2,8.56E2,2.53E2,1.79E2,1.84E2,1.35E2,4.09E2,8.04E2,9.8E2,1.855E3,6.86E2,1.03E3,1.43E3,2.887E3,4.625E3,8.9E1,1.632E3,1.292E3,1.82E3,1.588E3,2.473E3,1.754E3,4.211E3,2.43E2,2.4E2,1.55E2,6.9E2,6.8E1,1.92E2,6E1,2E0,3E0,9.9E1,7.6E1,9.3E1,6.72E2,5.5E1,2.62E2,1.22E2,6.8E1,4.1E1,6.5E1,1.82E2,5.57E2,2.99E2,2.24E2,2.9E1,5.7E1,1.22E2,3.2E1,1.52E2,1.05E2,3E1,3.63E2,4.6E1,1.4E1,7.9E2,3.24E2,6.56E2,1.33E3,5.25E2,5.01E2,1.85E2,6.26E2,4.04E2,9.48E2,4.82E2,1.197E3,1.69E3,2.342E3,2.283E3,5.3E1,3.6E1,3.52E2,1.28E3,6.55E2,6.37E2,2.16E2,1.604E3,5.61E2,1.027E3,1.458E3,1.015E3,6.89E2,1.065E3,1.48E3,2.731E3],"tree_param":{"num_deleted":"0","num_feature":"16","num_nodes":"127","size_leaf_vector":"1"}},{"base_weights":[-6.8272687E-3,-1.0426925E1,1.9814067E0,-1.4233999E1,-5.290457E0,6.592028E-2,5.085333E0,-1.7186874E1,-1.0989688E1,-2.4388592E0,-1.0185956E1,2.335357E0,-1.302801E0,2.9569006E0,6.186766E0,-1.791763E1,-1.2821913E1,-7.1052794E0,-1.2239915E1,-5.0389595E0,-1.2786607E0,-8.708845E0,-1.1045403E1,-8.370948E-1,3.9430044E0,-2.9172008E0,7.936677E-1,1.8441125E0,3.6373641E0,5.62724E0,7.0039425E0,-1.920042E1,-1.6279139E1,-1.3525159E1,-9.442699E0,-5.2913976E0,-1.1163965E1,-1.3273782E1,-9.89598E0,-6.883869E0,-2.4045894E0,-3.255315E0,-7.0526606E-1,-9.03486E0,-5.8497605E0,-1.2893189E0,-1.0151423E1,-2.3416784E0,1.6988957E-1,2.4366558E0,5.363376E0,-5.399984E0,-2.0262485E0,-8.563399E-1,1.9469004E0,4.729322E0,1.7038734E0,3.0786366E0,3.8413794E0,5.9011583E0,2.4406292E0,6.0864635E0,7.871511E0,-2.0105243E0,-1.6511471E0,-8.542517E-1,-1.7152528E0,-3.5809517E-2,-1.359018E0,-9.7525835E-1,-1.8534508E-1,-9.5834017E-1,-3.6195058E-1,-1.1484398E0,5.190382E-2,-1.2401215E0,-1.4370911E0,-9.2538327E-1,-1.2209352E0,-3.3217224E-1,-1.0809675E0,-1.4793639E-1,-4.7857547E-1,-3.332736E-1,1.9908486E-1,2.2667138E-2,-3.2507262E-1,-6.757929E-1,-9.494378E-1,-2.3574646E-1,-6.336987E-1,-9.101391E-1,-1.1269064E0,4.5938182E-1,-2.526487E-1,-3.65719E-2,1.01660036E-1,3.7591276E-1,-5.824086E-2,3.6950478E-1,6.5357506E-1,-3.067237E-1,-6.437471E-1,-3.3428773E-1,-1.5374379E-1,-1.5846364E-1,-2.4474714E-2,2.5747284E-1,1.5109189E-2,2.33272E-1,5.795898E-1,2.3941154E-2,2.0480041E-1,2.8848663E-1,3.2255444E-1,3.653426E-1,4.1693267E-1,6.258202E-1,4.9149236E-1,5.2268034E-1,6.680446E-2,5.34018E-1,6.418946E-1,8.2382745E-1,7.096148E-1],"categories":[],"categories_nodes":[],"categories_segments":[],"categories_sizes":[],"default_left":[0,0,0,0,0,0,0,0,0,0,0,0,0,0,0,0,0,0,0,0,0,0,0,0,0,0,0,0,0,0,0,0,0,0,0,0,0,0,0,0,0,0,0,0,0,0,0,0,0,0,0,0,0,0,0,0,0,0,0,0,0,0,0,0,0,0,0,0,0,0,0,0,0,0,0,0,0,0,0,0,0,0,0,0,0,0,0,0,0,0,0,0,0,0,0,0,0,0,0,0,0,0,0,0,0,0,0,0,0,0,0,0,0,0,0,0,0,0,0,0,0,0,0,0,0],"id":9,"left_children":[1,3,5,7,9,11,13,15,17,19,21,23,25,27,29,31,33,35,37,39,41,43,45,47,49,51,53,55,57,59,61,63,65,67,69,71,73,75,77,79,81,83,85,87,89,-1,91,93,95,97,99,101,103,105,107,109,111,113,115,117,119,121,123,-1,-1,-1,-1,-1,-1,-1,-1,-1,-1,-1,-1,-1,-1,-1,-1,-1,-1,-1,-1,-1,-1,-1,-1,-1,-1,-1,-1,-1,-1,-1,-1,-1,-1,-1,-1,-1,-1,-1,-1,-1,-1,-1,-1,-1,-1,-1,-1,-1,-1,-1,-1,-1,-1,-1,-1,-1,-1,-1,-1,-1,-1],"loss_changes":[7.160413E5,1.0821981E5,1.7256269E5,3.0275688E4,3.290679E4,5.5756703E4,2.5947438E4,5.07475E3,7.2850312E3,4.494371E3,1.00571875E3,3.444484E4,3.7898996E4,2.8547969E3,3.2974688E3,2.67625E3,4.473789E2,2.67958E3,2.6481875E3,2.219128E3,1.1685095E3,2.4914844E2,7.6939844E2,3.442687E3,9.576508E3,1.3982434E4,9.272316E3,5.729756E2,2.5536133E2,3.7712344E3,2.3097812E3,1.595E3,4.1171875E3,1.6464844E2,8.775488E1,1.8238364E3,4.327334E2,5.809375E2,4.143828E2,3.7398535E3,4.137151E2,1.008645E2,1.9032488E3,2.3821484E2,4.6316162E1,0E0,3.34E2,1.179272E3,6.180464E2,8.69414E3,4.486172E3,4.0219766E3,2.9920234E3,8.926809E2,3.233163E3,1.5518616E2,6.90447E2,8.685059E0,9.035547E1,1.3752969E3,1.7003696E3,3.2401562E2,3.735E2,0E0,0E0,0E0,0E0,0E0,0E0,0E0,0E0,0E0,0E0,0E0,0E0,0E0,0E0,0E0,0E0,0E0,0E0,0E0,0E0,0E0,0E0,0E0,0E0,0E0,0E0,0E0,0E0,0E0,0E0,0E0,0E0,0E0,0E0,0E0,0E0,0E0,0E0,0E0,0E0,0E0,0E0,0E0,0E0,0E0,0E0,0E0,0E0,0E0,0E0,0E0,0E0,0E0,0E0,0E0,0E0,0E0,0E0,0E0,0E0,0E0,0E0],"parents":[2147483647,0,0,1,1,2,2,3,3,4,4,5,5,6,6,7,7,8,8,9,9,10,10,11,11,12,12,13,13,14,14,15,15,16,16,17,17,18,18,19,19,20,20,21,21,22,22,23,23,24,24,25,25,26,26,27,27,28,28,29,29,30,30,31,31,32,32,33,33,34,34,35,35,36,36,37,37,38,38,39,39,40,40,41,41,42,42,43,43,44,44,46,46,47,47,48,48,49,49,50,50,51,51,52,52,53,53,54,54,55,55,56,56,57,57,58,58,59,59,60,60,61,61,62,62],"right_children":[2,4,6,8,10,12,14,16,18,20,22,24,26,28,30,32,34,36,38,40,42,44,46,48,50,52,54,56,58,60,62,64,66,68,70,72,74,76,78,80,82,84,86,88,90,-1,92,94,96,98,100,102,104,106,108,110,112,114,116,118,120,122,124,-1,-1,-1,-1,-1,-1,-1,-1,-1,-1,-1,-1,-1,-1,-1,-1,-1,-1,-1,-1,-1,-1,-1,-1,-1,-1,-1,-1,-1,-1,-1,-1,-1,-1,-1,-1,-1,-1,-1,-1,-1,-1,-1,-1,-1,-1,-1,-1,-1,-1,-1,-1,-1,-1,-1,-1,-1,-1,-1,-1,-1,-1],"split_conditions":[1.0734545E-3,1.3976179E0,1.3949915E-3,8.4760936E-4,2.6096767E1,3.4552307E1,1.8066757E3,4.225E1,2.537427E2,9.687222E-4,3.0339526E2,3.1083334E1,1.3069166E-3,1.4086127E3,1.5265463E-3,1.0899806E0,6.1333332E1,2.6643515E2,9.687222E-4,1.6300874E0,8.416667E0,1.5763494E0,1.5385258E0,4.7455917E2,1.2512227E-3,1.2049276E-3,9.38277E2,1.2299562E1,1.5312019E3,4.8527992E1,2.3830417E3,7.5662433E-4,2.8177948E2,1.4941163E3,8.9916664E1,1.1806368E0,3.0564053E2,4.1460964E1,2.8628326E2,2.867475E2,3.0689197E2,6.277373E2,5.85E1,2.8330167E2,2.5302415E2,-1.2893189E0,3.1993683E2,3.3333334E-1,7.768598E2,7.5416664E1,5.175E1,1.8166666E1,2.5617746E2,6.839945E2,1.929739E3,1.459216E-3,1.011391E3,1.4678083E3,1.7123829E3,7.8666664E1,6.65E1,2.100554E3,7.8666664E1,-2.0105243E0,-1.6511471E0,-8.542517E-1,-1.7152528E0,-3.5809517E-2,-1.359018E0,-9.7525835E-1,-1.8534508E-1,-9.5834017E-1,-3.6195058E-1,-1.1484398E0,5.190382E-2,-1.2401215E0,-1.4370911E0,-9.2538327E-1,-1.2209352E0,-3.3217224E-1,-1.0809675E0,-1.4793639E-1,-4.7857547E-1,-3.332736E-1,1.9908486E-1,2.2667138E-2,-3.2507262E-1,-6.757929E-1,-9.494378E-1,-2.3574646E-1,-6.336987E-1,-9.101391E-1,-1.1269064E0,4.5938182E-1,-2.526487E-1,-3.65719E-2,1.01660036E-1,3.7591276E-1,-5.824086E-2,3.6950478E-1,6.5357506E-1,-3.067237E-1,-6.437471E-1,-3.3428773E-1,-1.5374379E-1,-1.5846364E-1,-2.4474714E-2,2.5747284E-1,1.5109189E-2,2.33272E-1,5.795898E-1,2.3941154E-2,2.0480041E-1,2.8848663E-1,3.2255444E-1,3.653426E-1,4.1693267E-1,6.258202E-1,4.9149236E-1,5.2268034E-1,6.680446E-2,5.34018E-1,6.418946E-1,8.2382745E-1,7.096148E-1],"split_indices":[15,11,15,15,1,0,14,12,3,15,10,12,15,14,15,11,12,10,15,11,12,11,11,14,15,15,14,14,14,0,14,15,10,14,12,11,10,0,10,10,10,4,12,10,8,0,10,12,13,12,12,12,14,14,13,15,14,14,14,12,12,14,12,0,0,0,0,0,0,0,0,0,0,0,0,0,0,0,0,0,0,0,0,0,0,0,0,0,0,0,0,0,0,0,0,0,0,0,0,0,0,0,0,0,0,0,0,0,0,0,0,0,0,0,0,0,0,0,0,0,0,0,0,0,0],"split_type":[0,0,0,0,0,0,0,0,0,0,0,0,0,0,0,0,0,0,0,0,0,0,0,0,0,0,0,0,0,0,0,0,0,0,0,0,0,0,0,0,0,0,0,0,0,0,0,0,0,0,0,0,0,0,0,0,0,0,0,0,0,0,0,0,0,0,0,0,0,0,0,0,0,0,0,0,0,0,0,0,0,0,0,0,0,0,0,0,0,0,0,0,0,0,0,0,0,0,0,0,0,0,0,0,0,0,0,0,0,0,0,0,0,0,0,0,0,0,0,0,0,0,0,0,0],"sum_hessian":[3.456E4,5.537E3,2.9023E4,3.179E3,2.358E3,1.7948E4,1.1075E4,1.662E3,1.517E3,1.491E3,8.67E2,6.752E3,1.1196E4,3.778E3,7.297E3,1.421E3,2.41E2,3.71E2,1.146E3,4.59E2,1.032E3,3.23E2,5.44E2,2.271E3,4.481E3,6.325E3,4.871E3,1.435E3,2.343E3,4.336E3,2.961E3,7.91E2,6.3E2,1.97E2,4.4E1,2.58E2,1.13E2,7.92E2,3.54E2,2.69E2,1.9E2,2.31E2,8.01E2,2.88E2,3.5E1,1.73E2,3.71E2,9.1E2,1.361E3,2.176E3,2.305E3,1.669E3,4.656E3,2.004E3,2.867E3,6.5E1,1.37E3,6.31E2,1.712E3,3.992E3,3.44E2,1.443E3,1.518E3,5.87E2,2.04E2,6.5E1,5.65E2,1E0,1.96E2,4.2E1,2E0,7.1E1,1.87E2,1.1E2,3E0,4.48E2,3.44E2,2.81E2,7.3E1,1.42E2,1.27E2,1.38E2,5.2E1,2.28E2,3E0,5.87E2,2.14E2,5.1E1,2.37E2,5E0,3E1,1.96E2,1.75E2,2.3E1,8.87E2,8.34E2,5.27E2,1.513E3,6.63E2,9.53E2,1.352E3,5.15E2,1.154E3,1.259E3,3.397E3,9.14E2,1.09E3,2.124E3,7.43E2,2.1E1,4.4E1,2.61E2,1.109E3,2.81E2,3.5E2,1.096E3,6.16E2,2.927E3,1.065E3,1.33E2,2.11E2,4.5E2,9.93E2,1.024E3,4.94E2],"tree_param":{"num_deleted":"0","num_feature":"16","num_nodes":"125","size_leaf_vector":"1"}},{"base_weights":[-6.642816E-3,-1.1049028E1,1.5154798E0,-1.4101871E1,-7.0320616E0,-9.2741454E-1,3.807691E0,-1.6439007E1,-1.1979689E1,-4.037696E0,-1.06909685E1,1.3590325E0,-2.5115285E0,1.396124E0,4.929907E0,-1.4148412E1,-1.767644E1,-1.04608135E1,-1.3520996E1,-5.912221E0,-1.6609433E0,-1.4612912E1,-1.0183251E1,-1.1833824E0,2.6628048E0,-7.2167106E0,-1.7571574E0,-7.0069596E-2,2.2655406E0,4.2986937E0,5.982221E0,-1.7906E1,-1.2648417E1,-1.8742773E1,-1.5909677E1,-1.208947E1,-7.446548E0,-1.5123113E0,-1.2912476E1,-2.0569122E0,-8.955144E0,-2.2781284E-1,-3.1258988E0,-1.2498072E0,-1.6326847E1,-1.0566077E1,-8.0421095E0,-2.7289145E0,-4.5102128E-1,-7.053523E-1,3.4725163E0,-8.134794E0,-5.817811E0,-3.0631354E0,-1.0594022E0,4.2188444E0,-2.9128337E-1,1.6026322E0,2.6830008E0,5.2777133E0,3.3015487E0,4.9606905E0,6.7374454E0,-1.9628998E0,-1.318643E0,-1.1165262E0,-1.474603E0,-1.9661846E0,-1.6175355E0,-1.4724883E0,-1.6997757E0,-4.5542407E-1,-1.2247232E0,-1.8972705E-1,-8.424444E-1,-1.1598417E0,-1.4424428E0,-1.350842E-1,-3.1724057E-1,-1.0748285E0,-6.855031E-1,-1.542776E-1,1.940689E-1,-6.4757574E-1,-1.0183878E-1,-1.6617287E0,-6.5279466E-1,-6.097987E-1,-1.0762209E0,-8.365558E-1,-5.538139E-1,4.1026196E-1,-2.9613003E-1,-9.418131E-2,9.656988E-3,1.247167E-1,-5.936605E-1,1.8155514E-1,4.3458983E-1,-7.629168E-1,-1.0182258E0,-1.2818387E-1,-6.205759E-1,-2.6604578E-1,-5.984649E-1,-2.366489E-1,-4.53524E-2,5.18009E-1,2.6759434E-1,-1.464906E-1,1.7542275E-2,1.966086E-1,1.3968267E-1,3.6130163E-1,2.4565898E-1,4.1327247E-1,5.962855E-1,4.1819808E-1,1.5785126E-1,3.8345164E-1,5.290165E-1,6.9988173E-1,6.046682E-1],"categories":[],"categories_nodes":[],"categories_segments":[],"categories_sizes":[],"default_left":[0,0,0,0,0,0,0,0,0,0,0,0,0,0,0,0,0,0,0,0,0,0,0,0,0,0,0,0,0,0,0,0,0,0,0,0,0,0,0,0,0,0,0,0,0,0,0,0,0,0,0,0,0,0,0,0,0,0,0,0,0,0,0,0,0,0,0,0,0,0,0,0,0,0,0,0,0,0,0,0,0,0,0,0,0,0,0,0,0,0,0,0,0,0,0,0,0,0,0,0,0,0,0,0,0,0,0,0,0,0,0,0,0,0,0,0,0,0,0,0,0,0,0],"id":10,"left_children":[1,3,5,7,9,11,13,15,17,19,21,23,25,27,29,31,33,35,37,39,41,43,45,47,49,51,53,55,57,59,61,63,65,67,69,71,73,-1,75,77,79,81,83,-1,85,87,89,91,93,95,97,99,101,103,105,107,109,111,113,115,117,119,121,-1,-1,-1,-1,-1,-1,-1,-1,-1,-1,-1,-1,-1,-1,-1,-1,-1,-1,-1,-1,-1,-1,-1,-1,-1,-1,-1,-1,-1,-1,-1,-1,-1,-1,-1,-1,-1,-1,-1,-1,-1,-1,-1,-1,-1,-1,-1,-1,-1,-1,-1,-1,-1,-1,-1,-1,-1,-1,-1,-1],"loss_changes":[5.809134E5,5.124672E4,1.700923E5,1.15975625E4,1.978739E4,5.3264816E4,4.24035E4,2.95E3,2.784875E3,4.4320977E3,1.4720625E3,1.9954512E4,3.0821418E4,6.3457803E3,7.0776094E3,2.0336953E3,1.0752188E3,3.0223984E3,4.0625E2,6.5159727E3,9.251553E2,1.2579297E2,5.0848438E2,2.3089514E3,1.0854119E4,1.4938359E3,6.8202188E3,1.7602427E3,8.6050586E2,6.5115547E3,3.0579219E3,6.519297E2,7.375703E2,7.414375E2,1.11953125E2,4.316211E2,1.2050059E3,0E0,7.3471094E2,1.9025598E2,1.0974844E3,6.4173E2,1.5324551E3,0E0,2.5285156E1,4.698047E2,4.6E1,1.053582E3,3.7258292E2,7.892705E3,4.6346094E3,6.6977344E2,8.3495215E2,3.0510273E3,3.8651558E3,1.211012E2,9.6646484E2,8.7762695E1,3.9456738E2,2.621414E3,5.023824E3,6.1308984E2,3.7310938E2,0E0,0E0,0E0,0E0,0E0,0E0,0E0,0E0,0E0,0E0,0E0,0E0,0E0,0E0,0E0,0E0,0E0,0E0,0E0,0E0,0E0,0E0,0E0,0E0,0E0,0E0,0E0,0E0,0E0,0E0,0E0,0E0,0E0,0E0,0E0,0E0,0E0,0E0,0E0,0E0,0E0,0E0,0E0,0E0,0E0,0E0,0E0,0E0,0E0,0E0,0E0,0E0,0E0,0E0,0E0,0E0,0E0,0E0,0E0,0E0],"parents":[2147483647,0,0,1,1,2,2,3,3,4,4,5,5,6,6,7,7,8,8,9,9,10,10,11,11,12,12,13,13,14,14,15,15,16,16,17,17,18,18,19,19,20,20,21,21,22,22,23,23,24,24,25,25,26,26,27,27,28,28,29,29,30,30,31,31,32,32,33,33,34,34,35,35,36,36,38,38,39,39,40,40,41,41,42,42,44,44,45,45,46,46,47,47,48,48,49,49,50,50,51,51,52,52,53,53,54,54,55,55,56,56,57,57,58,58,59,59,60,60,61,61,62,62],"right_children":[2,4,6,8,10,12,14,16,18,20,22,24,26,28,30,32,34,36,38,40,42,44,46,48,50,52,54,56,58,60,62,64,66,68,70,72,74,-1,76,78,80,82,84,-1,86,88,90,92,94,96,98,100,102,104,106,108,110,112,114,116,118,120,122,-1,-1,-1,-1,-1,-1,-1,-1,-1,-1,-1,-1,-1,-1,-1,-1,-1,-1,-1,-1,-1,-1,-1,-1,-1,-1,-1,-1,-1,-1,-1,-1,-1,-1,-1,-1,-1,-1,-1,-1,-1,-1,-1,-1,-1,-1,-1,-1,-1,-1,-1,-1,-1,-1,-1,-1,-1,-1,-1,-1],"split_conditions":[1.013494E-3,1.2886046E0,1.3314405E-3,7.91006E-4,2.8061657E1,3.3001278E1,1.5066454E3,5.9240234E-1,2.7517624E2,1.6001874E0,8.7291934E-4,2.6666666E1,1.1411982E-3,1.0234879E3,1.5074279E-3,6.1096944E-4,7.379081E-4,1.1446723E0,1.1446723E0,2.7436942E2,2.9391577E2,3.2059567E2,7.0666664E1,3.1251608E2,1.6085706E0,1.0959993E-3,1.2413071E-3,3.3333334E-1,1.2285015E3,3.942536E1,6.575E1,9.320972E-1,2.815571E2,5.367456E2,4.2199814E1,2.3178932E2,2.4878989E2,-1.5123113E0,2.9141855E2,2.9416666E1,1.463666E0,2.3916666E1,1.8072395E0,-1.2498072E0,8.6064416E-4,2.7953574E2,2.741307E3,3.3333334E-1,1.85E1,2.633302E2,1.5416752E3,4.9048843E1,1.2666667E1,4.684455E1,1.2333333E1,3.5966437E2,7.066772E2,1.3682162E-3,1.3682162E-3,1.9773851E3,7.4583336E1,1.8919607E3,7.8666664E1,-1.9628998E0,-1.318643E0,-1.1165262E0,-1.474603E0,-1.9661846E0,-1.6175355E0,-1.4724883E0,-1.6997757E0,-4.5542407E-1,-1.2247232E0,-1.8972705E-1,-8.424444E-1,-1.1598417E0,-1.4424428E0,-1.350842E-1,-3.1724057E-1,-1.0748285E0,-6.855031E-1,-1.542776E-1,1.940689E-1,-6.4757574E-1,-1.0183878E-1,-1.6617287E0,-6.5279466E-1,-6.097987E-1,-1.0762209E0,-8.365558E-1,-5.538139E-1,4.1026196E-1,-2.9613003E-1,-9.418131E-2,9.656988E-3,1.247167E-1,-5.936605E-1,1.8155514E-1,4.3458983E-1,-7.629168E-1,-1.0182258E0,-1.2818387E-1,-6.205759E-1,-2.6604578E-1,-5.984649E-1,-2.366489E-1,-4.53524E-2,5.18009E-1,2.6759434E-1,-1.464906E-1,1.7542275E-2,1.966086E-1,1.3968267E-1,3.6130163E-1,2.4565898E-1,4.1327247E-1,5.962855E-1,4.1819808E-1,1.5785126E-1,3.8345164E-1,5.290165E-1,6.9988173E-1,6.046682E-1],"split_indices":[15,11,15,15,1,0,14,5,10,11,15,12,15,14,15,15,15,11,11,10,10,10,12,14,11,15,15,12,14,0,12,9,10,13,0,10,10,0,10,12,11,12,11,0,15,10,13,12,12,10,14,0,12,0,12,10,14,15,15,14,12,14,12,0,0,0,0,0,0,0,0,0,0,0,0,0,0,0,0,0,0,0,0,0,0,0,0,0,0,0,0,0,0,0,0,0,0,0,0,0,0,0,0,0,0,0,0,0,0,0,0,0,0,0,0,0,0,0,0,0,0,0,0],"split_type":[0,0,0,0,0,0,0,0,0,0,0,0,0,0,0,0,0,0,0,0,0,0,0,0,0,0,0,0,0,0,0,0,0,0,0,0,0,0,0,0,0,0,0,0,0,0,0,0,0,0,0,0,0,0,0,0,0,0,0,0,0,0,0,0,0,0,0,0,0,0,0,0,0,0,0,0,0,0,0,0,0,0,0,0,0,0,0,0,0,0,0,0,0,0,0,0,0,0,0,0,0,0,0,0,0,0,0,0,0,0,0,0,0,0,0,0,0,0,0,0,0,0,0],"sum_hessian":[3.456E4,4.186E3,3.0374E4,2.377E3,1.809E3,1.4704E4,1.567E4,1.128E3,1.249E3,9.96E2,8.13E2,6.018E3,8.686E3,4.977E3,1.0693E4,4E2,7.28E2,6.33E2,6.16E2,5.56E2,4.4E2,9E1,7.23E2,2.04E3,3.978E3,1.199E3,7.487E3,1.853E3,3.124E3,6.687E3,4.006E3,1.11E2,2.89E2,4.48E2,2.8E2,4.09E2,2.24E2,1.63E2,4.53E2,2.46E2,3.1E2,2.23E2,2.17E2,4.4E1,4.6E1,6.1E2,1.13E2,6.55E2,1.385E3,7.71E2,3.207E3,7.21E2,4.78E2,2.606E3,4.881E3,9E1,1.763E3,1.209E3,1.915E3,3.372E3,3.315E3,1.706E3,2.3E3,7.9E1,3.2E1,1.73E2,1.16E2,3.25E2,1.23E2,1.41E2,1.39E2,9E0,4E2,3.4E1,1.9E2,2.47E2,2.06E2,1.52E2,9.4E1,1.65E2,1.45E2,1.39E2,8.4E1,8.3E1,1.34E2,4.4E1,2E0,2.7E1,5.83E2,9.8E1,1.5E1,2.1E1,6.34E2,7.3E2,6.55E2,5.62E2,2.09E2,1.108E3,2.099E3,5.82E2,1.39E2,3.8E1,4.4E2,2.292E3,3.14E2,1.545E3,3.336E3,5.4E1,3.6E1,5.01E2,1.262E3,4.34E2,7.75E2,3.72E2,1.543E3,1.265E3,2.107E3,2.193E3,1.122E3,3.89E2,1.317E3,1.662E3,6.38E2],"tree_param":{"num_deleted":"0","num_feature":"16","num_nodes":"123","size_leaf_vector":"1"}},{"base_weights":[-6.7631183E-3,-8.4725E0,1.608564E0,-1.29666E1,-5.590624E0,1.434941E-1,4.284714E0,-1.4428517E1,-1.058281E1,-2.1751833E0,-8.74779E0,1.8840927E0,-9.8424536E-1,2.6101866E0,5.188387E0,-1.5961369E1,-1.2876418E1,-7.613177E0,-1.2963952E1,-4.2680106E0,-1.1131622E0,-9.881382E0,-7.690372E0,-5.0775087E-1,3.2924116E0,-2.4627788E0,6.8644655E-1,1.6949416E0,3.084272E0,5.476161E0,4.30634E0,-1.6858545E1,-1.3095925E1,-1.075667E1,-1.3699206E1,-1.966279E0,-8.614005E0,-1.1449974E1,-1.4487644E1,-2.617884E0,-8.129242E0,3.1662922E-2,-2.4219217E0,-9.32067E0,-1.181185E1,-5.775136E0,-8.111941E0,-1.6500951E0,4.6842638E-1,4.0783863E0,1.0820177E0,-4.561068E0,-1.7220693E0,-6.0655236E-1,1.6244631E0,1.5773084E0,4.2297E0,2.7931542E0,3.5084994E0,4.8895884E0,6.8535748E0,3.79372E0,7.6444836E0,-1.4714192E0,-1.735698E0,-1.1755766E0,-1.3878524E0,-1.1363653E0,-7.237702E-1,-1.4114367E0,-1.1941141E0,1.008897E-2,-4.26687E-1,-1.0193149E0,-4.751812E-1,-9.171943E-1,-1.1678581E0,-1.4767853E0,-9.2296696E-1,-6.663654E-1,-1.8776438E-1,-3.0210015E-1,-9.306018E-1,-1.3192272E-1,1.484485E-1,-5.375474E-1,-7.014544E-2,-9.562866E-1,-7.1146363E-1,-1.211778E0,-9.356944E-1,-1.3735925E-1,-5.901726E-1,-8.3526534E-1,-5.6326026E-1,3.991594E-1,-1.776873E-1,-3.5482962E-3,9.997563E-2,3.110278E-1,6.6073143E-1,-1.2590405E-1,3.785145E-1,-3.7177402E-1,-6.5908945E-1,-3.0507863E-1,-1.3973679E-1,-1.3106535E-1,-1.1327632E-2,2.2179583E-1,-4.6329754E-3,9.203264E-2,1.9880122E-1,4.9198338E-1,1.404245E-1,2.6722753E-1,2.975322E-1,3.194108E-1,3.6363214E-1,4.4729614E-1,5.280108E-1,6.289903E-1,7.3840165E-1,1.7289724E-2,4.0780044E-1,6.7186785E-1,8.525223E-1],"categories":[],"categories_nodes":[],"categories_segments":[],"categories_sizes":[],"default_left":[0,0,0,0,0,0,0,0,0,0,0,0,0,0,0,0,0,0,0,0,0,0,0,0,0,0,0,0,0,0,0,0,0,0,0,0,0,0,0,0,0,0,0,0,0,0,0,0,0,0,0,0,0,0,0,0,0,0,0,0,0,0,0,0,0,0,0,0,0,0,0,0,0,0,0,0,0,0,0,0,0,0,0,0,0,0,0,0,0,0,0,0,0,0,0,0,0,0,0,0,0,0,0,0,0,0,0,0,0,0,0,0,0,0,0,0,0,0,0,0,0,0,0,0,0,0,0],"id":11,"left_children":[1,3,5,7,9,11,13,15,17,19,21,23,25,27,29,31,33,35,37,39,41,43,45,47,49,51,53,55,57,59,61,63,65,67,69,71,73,75,77,79,81,83,85,87,89,91,93,95,97,99,101,103,105,107,109,111,113,115,117,119,121,123,125,-1,-1,-1,-1,-1,-1,-1,-1,-1,-1,-1,-1,-1,-1,-1,-1,-1,-1,-1,-1,-1,-1,-1,-1,-1,-1,-1,-1,-1,-1,-1,-1,-1,-1,-1,-1,-1,-1,-1,-1,-1,-1,-1,-1,-1,-1,-1,-1,-1,-1,-1,-1,-1,-1,-1,-1,-1,-1,-1,-1,-1,-1,-1,-1],"loss_changes":[4.7263303E5,7.165259E4,1.1379516E5,7.3851562E3,3.638475E4,3.682075E4,1.5524234E4,2.9777812E3,5.7420547E3,3.6025728E3,2.0264844E3,2.4844205E4,2.811968E4,1.5572598E3,1.6689688E3,1.4990781E3,1.0211953E3,2.0741445E3,8.8833594E2,3.4575693E3,1.6152448E3,8.0240625E2,6.895117E2,3.0495393E3,8.0601953E3,9.378098E3,6.4836914E3,3.6037793E2,2.8301758E2,4.0256406E3,2.7859258E3,2.854375E2,8.849609E0,3.2785547E2,1.8107031E2,2.7150592E2,1.8666367E3,1.4748047E1,1.9372266E2,1.1375071E3,9.517207E2,1.1324176E3,2.5522195E3,2.8352344E2,2.630664E1,8.550098E1,3.975703E2,9.0829736E2,3.9495505E2,8.362348E3,7.7188145E3,2.6715918E3,1.9221006E3,7.8061847E2,3.0721035E3,3.1602417E2,9.838812E1,2.311914E1,2.7004883E1,5.502344E2,4.014453E2,1.4691973E3,1.2047656E2,0E0,0E0,0E0,0E0,0E0,0E0,0E0,0E0,0E0,0E0,0E0,0E0,0E0,0E0,0E0,0E0,0E0,0E0,0E0,0E0,0E0,0E0,0E0,0E0,0E0,0E0,0E0,0E0,0E0,0E0,0E0,0E0,0E0,0E0,0E0,0E0,0E0,0E0,0E0,0E0,0E0,0E0,0E0,0E0,0E0,0E0,0E0,0E0,0E0,0E0,0E0,0E0,0E0,0E0,0E0,0E0,0E0,0E0,0E0,0E0,0E0,0E0,0E0,0E0],"parents":[2147483647,0,0,1,1,2,2,3,3,4,4,5,5,6,6,7,7,8,8,9,9,10,10,11,11,12,12,13,13,14,14,15,15,16,16,17,17,18,18,19,19,20,20,21,21,22,22,23,23,24,24,25,25,26,26,27,27,28,28,29,29,30,30,31,31,32,32,33,33,34,34,35,35,36,36,37,37,38,38,39,39,40,40,41,41,42,42,43,43,44,44,45,45,46,46,47,47,48,48,49,49,50,50,51,51,52,52,53,53,54,54,55,55,56,56,57,57,58,58,59,59,60,60,61,61,62,62],"right_children":[2,4,6,8,10,12,14,16,18,20,22,24,26,28,30,32,34,36,38,40,42,44,46,48,50,52,54,56,58,60,62,64,66,68,70,72,74,76,78,80,82,84,86,88,90,92,94,96,98,100,102,104,106,108,110,112,114,116,118,120,122,124,126,-1,-1,-1,-1,-1,-1,-1,-1,-1,-1,-1,-1,-1,-1,-1,-1,-1,-1,-1,-1,-1,-1,-1,-1,-1,-1,-1,-1,-1,-1,-1,-1,-1,-1,-1,-1,-1,-1,-1,-1,-1,-1,-1,-1,-1,-1,-1,-1,-1,-1,-1,-1,-1,-1,-1,-1,-1,-1,-1,-1,-1,-1,-1,-1],"split_conditions":[1.0734545E-3,8.862349E-4,1.4068482E-3,1.1644591E0,6.738522E-1,3.542124E1,1.8682612E3,7.379081E-4,1.1900808E3,1.5137848E0,9.771249E-4,3.3166668E1,1.3069166E-3,1.44569E3,7.8666664E1,6.7236237E2,2.6489322E2,2.6787283E2,3.062544E2,2.6709985E2,2.8937625E2,4.750021E1,3.623365E1,1.675E1,7.5416664E1,1.2049276E-3,9.745166E2,6.277373E2,4.925E1,2.3704592E3,1.8008333E2,6.064359E2,2.7436942E2,1.0670968E0,4.225E1,1.7398704E3,1.4790227E0,2.828644E2,4.7166668E1,1.1960535E0,2.0166666E1,7.661316E2,1.7999984E0,2.2616262E3,1.9410236E3,4.5E0,8.3166664E1,3.3333334E-1,8.2460754E2,2.0645547E3,1.3266667E2,4.4913563E1,1.9083884E2,6.839945E2,6.2083332E1,3.45E1,3.5966437E2,4.6416668E1,1.7591512E3,6.1E1,2.4744363E3,1.12416664E2,6.0252837E3,-1.4714192E0,-1.735698E0,-1.1755766E0,-1.3878524E0,-1.1363653E0,-7.237702E-1,-1.4114367E0,-1.1941141E0,1.008897E-2,-4.26687E-1,-1.0193149E0,-4.751812E-1,-9.171943E-1,-1.1678581E0,-1.4767853E0,-9.2296696E-1,-6.663654E-1,-1.8776438E-1,-3.0210015E-1,-9.306018E-1,-1.3192272E-1,1.484485E-1,-5.375474E-1,-7.014544E-2,-9.562866E-1,-7.1146363E-1,-1.211778E0,-9.356944E-1,-1.3735925E-1,-5.901726E-1,-8.3526534E-1,-5.6326026E-1,3.991594E-1,-1.776873E-1,-3.5482962E-3,9.997563E-2,3.110278E-1,6.6073143E-1,-1.2590405E-1,3.785145E-1,-3.7177402E-1,-6.5908945E-1,-3.0507863E-1,-1.3973679E-1,-1.3106535E-1,-1.1327632E-2,2.2179583E-1,-4.6329754E-3,9.203264E-2,1.9880122E-1,4.9198338E-1,1.404245E-1,2.6722753E-1,2.975322E-1,3.194108E-1,3.6363214E-1,4.4729614E-1,5.280108E-1,6.289903E-1,7.3840165E-1,1.7289724E-2,4.0780044E-1,6.7186785E-1,8.525223E-1],"split_indices":[15,15,15,11,5,0,14,15,2,11,15,12,15,14,12,13,10,10,10,10,10,0,0,12,12,15,14,4,12,14,12,2,10,11,12,13,11,10,12,11,12,14,11,13,13,12,12,12,13,14,12,0,14,14,12,12,10,12,14,12,14,12,13,0,0,0,0,0,0,0,0,0,0,0,0,0,0,0,0,0,0,0,0,0,0,0,0,0,0,0,0,0,0,0,0,0,0,0,0,0,0,0,0,0,0,0,0,0,0,0,0,0,0,0,0,0,0,0,0,0,0,0,0,0,0,0,0],"split_type":[0,0,0,0,0,0,0,0,0,0,0,0,0,0,0,0,0,0,0,0,0,0,0,0,0,0,0,0,0,0,0,0,0,0,0,0,0,0,0,0,0,0,0,0,0,0,0,0,0,0,0,0,0,0,0,0,0,0,0,0,0,0,0,0,0,0,0,0,0,0,0,0,0,0,0,0,0,0,0,0,0,0,0,0,0,0,0,0,0,0,0,0,0,0,0,0,0,0,0,0,0,0,0,0,0,0,0,0,0,0,0,0,0,0,0,0,0,0,0,0,0,0,0,0,0,0,0],"sum_hessian":[3.456E4,5.537E3,2.9023E4,2.162E3,3.375E3,1.8756E4,1.0267E4,1.337E3,8.25E2,1.622E3,1.753E3,7.374E3,1.1382E4,3.6E3,6.667E3,6.68E2,6.69E2,3.69E2,4.56E2,5.45E2,1.077E3,8.42E2,9.11E2,2.733E3,4.641E3,6.038E3,5.344E3,1.23E3,2.37E3,5.023E3,1.644E3,5.05E2,1.63E2,1.91E2,4.78E2,5.6E1,3.13E2,2.33E2,2.23E2,3.83E2,1.62E2,5.75E2,5.02E2,6.57E2,1.85E2,1.67E2,7.44E2,1.259E3,1.474E3,3.423E3,1.218E3,1.574E3,4.464E3,2.247E3,3.097E3,1.177E3,5.3E1,1.41E3,9.6E2,3.526E3,1.497E3,1.427E3,2.17E2,1.01E2,4.04E2,6.6E1,9.7E1,1.61E2,3E1,3.81E2,9.7E1,3E1,2.6E1,2.21E2,9.2E1,2.5E1,2.08E2,2.1E2,1.3E1,5.8E1,3.25E2,3.1E1,1.31E2,2.98E2,2.77E2,1.84E2,3.18E2,5.89E2,6.8E1,1.61E2,2.4E1,5E0,1.62E2,6.76E2,6.8E1,2.7E1,1.232E3,7.57E2,7.17E2,2.477E3,9.46E2,6.53E2,5.65E2,1.114E3,4.6E2,8.75E2,3.589E3,9.25E2,1.322E3,2.285E3,8.12E2,4.54E2,7.23E2,4.2E1,1.1E1,8.57E2,5.53E2,2.85E2,6.75E2,1.712E3,1.814E3,7.32E2,7.65E2,1.04E2,1.323E3,1.1E2,1.07E2],"tree_param":{"num_deleted":"0","num_feature":"16","num_nodes":"127","size_leaf_vector":"1"}},{"base_weights":[-6.6260714E-3,-7.6298094E0,1.4479356E0,-1.0423429E1,-3.8606958E0,1.2915236E-1,3.8568728E0,-1.2923429E1,-8.380974E0,-1.7910154E0,-7.4138093E0,1.6958929E0,-8.859439E-1,2.3251452E0,4.6572604E0,-1.3667098E1,-1.0436987E1,-5.0957794E0,-9.16498E0,-3.5884006E0,-8.538922E-1,-6.413971E0,-8.282617E0,-3.7021154E-1,3.024284E0,-2.2167459E0,6.178163E-1,1.5003585E0,2.743068E0,4.3576255E0,5.3250346E0,-1.5311263E1,-1.292946E1,-8.323161E0,-1.1197461E1,-8.013493E0,-2.1653287E0,-1.0038502E1,-7.834611E0,-1.5458798E0,-4.8969483E0,-3.6045474E-1,-2.7223823E0,-3.5927906E0,-6.6608357E0,-9.393409E0,-7.619707E0,-1.8985703E0,2.802403E-1,2.9378515E-1,3.6217556E0,-1.4311855E0,-3.9864483E0,-6.0191196E-1,1.4279915E0,3.7111034E0,1.3815409E0,2.500644E0,3.1223722E0,4.527944E0,1.2020596E0,4.5610986E0,6.0948977E0,-1.2122242E0,-1.6022282E0,-8.9007044E-1,-1.3828421E0,-9.875663E-1,-2.2403741E-1,-1.1432277E0,-8.181918E-1,-1.5826063E-1,-8.6256266E-1,7.126716E-3,-3.5374984E-1,-8.777011E-1,-1.0925477E0,-7.146965E-1,-8.805109E-1,-4.98411E-1,-1.07361354E-1,-7.4966365E-1,-1.7094047E-1,-1.3393216E-1,1.8262292E-1,-3.6465997E-1,2.5827923E-1,-4.116579E-1,-1.6222267E-1,-7.699315E-1,-6.0625774E-1,-9.476538E-1,-3.6159602E-1,-7.8814E-1,-5.386718E-1,3.6066908E-1,-2.0809042E-1,-2.7623102E-2,8.9478366E-2,1.848717E-1,-4.4034156E-1,4.1730997E-1,1.8261878E-1,-2.2938979E-1,-5.2162964E-2,-3.182626E-1,-5.79899E-1,-1.1524222E-1,-1.3340898E-2,1.9252549E-1,-4.1701165E-3,4.3822938E-1,1.40538E-1,7.150839E-2,1.7213957E-1,2.2878306E-1,2.5945863E-1,2.9491428E-1,3.2810637E-1,4.8465273E-1,3.908703E-1,3.914255E-1,-4.5135252E-2,3.9417753E-1,4.7446916E-1,6.270385E-1,5.404489E-1],"categories":[],"categories_nodes":[],"categories_segments":[],"categories_sizes":[],"default_left":[0,0,0,0,0,0,0,0,0,0,0,0,0,0,0,0,0,0,0,0,0,0,0,0,0,0,0,0,0,0,0,0,0,0,0,0,0,0,0,0,0,0,0,0,0,0,0,0,0,0,0,0,0,0,0,0,0,0,0,0,0,0,0,0,0,0,0,0,0,0,0,0,0,0,0,0,0,0,0,0,0,0,0,0,0,0,0,0,0,0,0,0,0,0,0,0,0,0,0,0,0,0,0,0,0,0,0,0,0,0,0,0,0,0,0,0,0,0,0,0,0,0,0,0,0,0,0],"id":12,"left_children":[1,3,5,7,9,11,13,15,17,19,21,23,25,27,29,31,33,35,37,39,41,43,45,47,49,51,53,55,57,59,61,63,65,67,69,71,73,75,77,79,81,83,85,87,89,91,93,95,97,99,101,103,105,107,109,111,113,115,117,119,121,123,125,-1,-1,-1,-1,-1,-1,-1,-1,-1,-1,-1,-1,-1,-1,-1,-1,-1,-1,-1,-1,-1,-1,-1,-1,-1,-1,-1,-1,-1,-1,-1,-1,-1,-1,-1,-1,-1,-1,-1,-1,-1,-1,-1,-1,-1,-1,-1,-1,-1,-1,-1,-1,-1,-1,-1,-1,-1,-1,-1,-1,-1,-1,-1,-1],"loss_changes":[3.8323688E5,5.827197E4,9.220487E4,1.6129219E4,1.733436E4,2.9832494E4,1.2577484E4,2.4978594E3,4.4683438E3,2.510018E3,7.00875E2,2.0242506E4,2.278111E4,1.2112871E3,1.3259844E3,1.13125E3,4.4210547E2,2.8897207E3,1.5645625E3,1.3581978E3,9.0440607E2,2.602207E2,2.6788477E2,2.8705674E3,7.3222734E3,8.38976E3,5.282754E3,3.0693115E2,2.0726953E2,2.499086E3,1.1978594E3,5.6309375E2,2.6402734E3,8.4668066E2,7.7822266E1,6.5556445E2,5.2504926E2,8.551875E2,3.141289E2,3.2102478E2,2.5643237E3,1.6677335E3,1.01456104E3,2.944751E1,1.8567969E2,4.64209E1,1.293457E2,8.727766E2,6.930901E2,5.9023296E3,3.638457E3,3.2819248E3,2.685666E3,5.502382E2,2.3474888E3,8.6695984E1,2.5448608E2,2.269336E1,1.528418E1,8.5322656E2,1.0780172E3,1.006875E2,9.151172E1,0E0,0E0,0E0,0E0,0E0,0E0,0E0,0E0,0E0,0E0,0E0,0E0,0E0,0E0,0E0,0E0,0E0,0E0,0E0,0E0,0E0,0E0,0E0,0E0,0E0,0E0,0E0,0E0,0E0,0E0,0E0,0E0,0E0,0E0,0E0,0E0,0E0,0E0,0E0,0E0,0E0,0E0,0E0,0E0,0E0,0E0,0E0,0E0,0E0,0E0,0E0,0E0,0E0,0E0,0E0,0E0,0E0,0E0,0E0,0E0,0E0,0E0,0E0,0E0],"parents":[2147483647,0,0,1,1,2,2,3,3,4,4,5,5,6,6,7,7,8,8,9,9,10,10,11,11,12,12,13,13,14,14,15,15,16,16,17,17,18,18,19,19,20,20,21,21,22,22,23,23,24,24,25,25,26,26,27,27,28,28,29,29,30,30,31,31,32,32,33,33,34,34,35,35,36,36,37,37,38,38,39,39,40,40,41,41,42,42,43,43,44,44,45,45,46,46,47,47,48,48,49,49,50,50,51,51,52,52,53,53,54,54,55,55,56,56,57,57,58,58,59,59,60,60,61,61,62,62],"right_children":[2,4,6,8,10,12,14,16,18,20,22,24,26,28,30,32,34,36,38,40,42,44,46,48,50,52,54,56,58,60,62,64,66,68,70,72,74,76,78,80,82,84,86,88,90,92,94,96,98,100,102,104,106,108,110,112,114,116,118,120,122,124,126,-1,-1,-1,-1,-1,-1,-1,-1,-1,-1,-1,-1,-1,-1,-1,-1,-1,-1,-1,-1,-1,-1,-1,-1,-1,-1,-1,-1,-1,-1,-1,-1,-1,-1,-1,-1,-1,-1,-1,-1,-1,-1,-1,-1,-1,-1,-1,-1,-1,-1,-1,-1,-1,-1,-1,-1,-1,-1,-1,-1,-1,-1,-1,-1],"split_conditions":[1.0734545E-3,1.3976179E0,1.4068482E-3,8.2030735E-4,2.6096767E1,3.542124E1,1.856341E3,3.2083332E1,2.575794E2,9.771249E-4,4.18584E1,1.2049623E3,1.3069166E-3,4.1166668E1,1.5478769E-3,9.6226925E-1,2.675339E2,1.1644591E0,9.35824E-4,2.851226E2,5.85E1,2.830781E2,9.771249E-4,4.0264383E2,1.6342205E0,1.2285015E3,2.7333334E1,1.2299562E1,1.7123829E3,5.0422607E1,2.421829E3,2.546383E2,2.815571E2,1.1644591E0,5.9583332E1,2.3178932E2,2.4649506E2,3.7890068E1,2.8132E2,1.4239501E0,1.6794052E0,7.289897E2,1.3041667E2,1.4790227E0,1.4790227E0,1.718087E0,8.0916664E1,3.3333334E-1,8.407605E2,2.633302E2,2.6337385E3,1E1,4.613042E1,2.0166666E1,6.2083332E1,3.5966437E2,1.1679032E3,1.5312019E3,1.7843837E3,4.246646E1,6.875E1,2.1124905E3,5.0965824E1,-1.2122242E0,-1.6022282E0,-8.9007044E-1,-1.3828421E0,-9.875663E-1,-2.2403741E-1,-1.1432277E0,-8.181918E-1,-1.5826063E-1,-8.6256266E-1,7.126716E-3,-3.5374984E-1,-8.777011E-1,-1.0925477E0,-7.146965E-1,-8.805109E-1,-4.98411E-1,-1.07361354E-1,-7.4966365E-1,-1.7094047E-1,-1.3393216E-1,1.8262292E-1,-3.6465997E-1,2.5827923E-1,-4.116579E-1,-1.6222267E-1,-7.699315E-1,-6.0625774E-1,-9.476538E-1,-3.6159602E-1,-7.8814E-1,-5.386718E-1,3.6066908E-1,-2.0809042E-1,-2.7623102E-2,8.9478366E-2,1.848717E-1,-4.4034156E-1,4.1730997E-1,1.8261878E-1,-2.2938979E-1,-5.2162964E-2,-3.182626E-1,-5.79899E-1,-1.1524222E-1,-1.3340898E-2,1.9252549E-1,-4.1701165E-3,4.3822938E-1,1.40538E-1,7.150839E-2,1.7213957E-1,2.2878306E-1,2.5945863E-1,2.9491428E-1,3.2810637E-1,4.8465273E-1,3.908703E-1,3.914255E-1,-4.5135252E-2,3.9417753E-1,4.7446916E-1,6.270385E-1,5.404489E-1],"split_indices":[15,11,15,15,1,0,14,12,10,15,1,14,15,12,15,11,10,11,15,10,12,10,15,14,11,14,12,14,14,0,14,10,10,11,12,10,10,0,10,11,11,13,12,11,11,11,12,12,14,10,14,12,0,12,12,10,14,14,14,0,12,14,0,0,0,0,0,0,0,0,0,0,0,0,0,0,0,0,0,0,0,0,0,0,0,0,0,0,0,0,0,0,0,0,0,0,0,0,0,0,0,0,0,0,0,0,0,0,0,0,0,0,0,0,0,0,0,0,0,0,0,0,0,0,0,0,0],"split_type":[0,0,0,0,0,0,0,0,0,0,0,0,0,0,0,0,0,0,0,0,0,0,0,0,0,0,0,0,0,0,0,0,0,0,0,0,0,0,0,0,0,0,0,0,0,0,0,0,0,0,0,0,0,0,0,0,0,0,0,0,0,0,0,0,0,0,0,0,0,0,0,0,0,0,0,0,0,0,0,0,0,0,0,0,0,0,0,0,0,0,0,0,0,0,0,0,0,0,0,0,0,0,0,0,0,0,0,0,0,0,0,0,0,0,0,0,0,0,0,0,0,0,0,0,0,0,0],"sum_hessian":[3.456E4,5.537E3,2.9023E4,3.179E3,2.358E3,1.8756E4,1.0267E4,1.427E3,1.752E3,1.491E3,8.67E2,7.374E3,1.1382E4,3.525E3,6.742E3,1.095E3,3.32E2,3.39E2,1.413E3,5.1E2,9.81E2,4.07E2,4.6E2,2.886E3,4.488E3,6.038E3,5.344E3,1.187E3,2.338E3,4.659E3,2.083E3,3.33E2,7.62E2,9.1E1,2.41E2,1.69E2,1.7E2,8.49E2,5.64E2,2E2,3.1E2,7.77E2,2.04E2,3.4E1,3.73E2,1.67E2,2.93E2,8.61E2,2.025E3,8.06E2,3.682E3,4.183E3,1.855E3,2.133E3,3.211E3,5.9E1,1.128E3,1.431E3,9.07E2,4.42E3,2.39E2,1.049E3,1.034E3,6.4E1,2.69E2,1.41E2,6.21E2,7.2E1,1.9E1,2.21E2,2E1,1.5E1,1.54E2,6.5E1,1.05E2,3.55E2,4.94E2,3.35E2,2.29E2,2.3E1,1.77E2,1.7E2,1.4E2,5.37E2,2.4E2,1.74E2,3E1,2.6E1,8E0,1.32E2,2.41E2,1.64E2,3E0,2.6E2,3.3E1,2.7E1,8.34E2,1.063E3,9.62E2,6.06E2,2E2,2.816E3,8.66E2,2.146E3,2.037E3,1.287E3,5.68E2,9.8E2,1.153E3,2.399E3,8.12E2,4.5E1,1.4E1,3.82E2,7.46E2,4.46E2,9.85E2,4.43E2,4.64E2,2.914E3,1.506E3,9E1,1.49E2,2.45E2,8.04E2,8.18E2,2.16E2],"tree_param":{"num_deleted":"0","num_feature":"16","num_nodes":"127","size_leaf_vector":"1"}},{"base_weights":[-6.389721E-3,-6.415357E0,1.3998613E0,-1.0185715E1,-3.9995224E0,2.3461173E-1,3.4939067E0,-1.1773755E1,-8.235296E0,-1.8388386E0,-6.9172482E0,1.8856754E0,-5.9202784E-1,2.1545813E0,4.2335196E0,-1.242381E1,-9.671009E0,-1.1593376E0,-8.538025E0,-3.877747E0,-8.880305E-1,-9.001067E0,-6.249882E0,-6.3563436E-2,3.268918E0,-1.6429783E0,8.138742E-1,1.421647E0,2.5441077E0,4.4834185E0,3.4775302E0,-1.4203286E1,-1.18708935E1,-1.0026762E1,-6.2731943E0,1.3793808E0,-4.5286407E0,-9.01062E0,-5.9168124E0,-5.001928E0,-1.6223623E0,-1.2371118E0,1.5177559E0,-7.960373E0,-1.0254417E1,-5.8493934E0,-7.7730036E0,-1.0995228E0,7.4710506E-1,4.0433693E0,1.2421057E0,-1.1020297E0,-3.1554942E0,-2.9826647E-1,1.6037534E0,3.3496366E0,1.3236544E0,2.3189304E0,2.9311678E0,4.019323E0,5.7436795E0,3.0305715E0,6.381146E0,-1.1621002E0,-1.4942102E0,-7.84435E-1,-1.2539287E0,1.2508774E-1,-1.0070416E0,-5.1136877E-2,-6.8323314E-1,-3.0209497E-2,6.2267536E-1,-7.75109E-1,-5.3108312E-2,-7.981745E-1,-9.6898764E-1,-6.224733E-1,-1.8850592E-1,-1.8335877E-1,-7.188677E-1,-7.9787515E-2,-3.7283853E-1,-5.270489E-2,-3.068522E-1,4.2044574E-1,-3.2643687E-2,-5.3890103E-1,-8.194069E-1,-1.1799021E0,-8.766245E-1,-6.063246E-1,-3.707689E-1,-7.9079276E-1,-3.2514018E-1,-2.002919E-1,-5.660052E-2,3.8305156E-2,1.3352081E-1,3.1171435E-1,6.2299836E-1,2.2562357E-2,6.982332E-1,-1.9781183E-1,-1.9555723E-2,-2.3157445E-1,-4.928328E-1,-8.369466E-2,1.3853152E-2,2.0662852E-1,2.973386E-2,3.953588E-1,1.2742092E-1,7.806681E-2,1.685819E-1,2.1928883E-1,2.4751158E-1,2.7862272E-1,3.070303E-1,3.687739E-1,4.4244525E-1,6.733597E-1,5.5498075E-1,8.8892534E-2,3.433975E-1,5.5651766E-1,7.145586E-1],"categories":[],"categories_nodes":[],"categories_segments":[],"categories_sizes":[],"default_left":[0,0,0,0,0,0,0,0,0,0,0,0,0,0,0,0,0,0,0,0,0,0,0,0,0,0,0,0,0,0,0,0,0,0,0,0,0,0,0,0,0,0,0,0,0,0,0,0,0,0,0,0,0,0,0,0,0,0,0,0,0,0,0,0,0,0,0,0,0,0,0,0,0,0,0,0,0,0,0,0,0,0,0,0,0,0,0,0,0,0,0,0,0,0,0,0,0,0,0,0,0,0,0,0,0,0,0,0,0,0,0,0,0,0,0,0,0,0,0,0,0,0,0,0,0,0,0],"id":13,"left_children":[1,3,5,7,9,11,13,15,17,19,21,23,25,27,29,31,33,35,37,39,41,43,45,47,49,51,53,55,57,59,61,63,65,67,69,71,73,75,77,79,81,83,85,87,89,91,93,95,97,99,101,103,105,107,109,111,113,115,117,119,121,123,125,-1,-1,-1,-1,-1,-1,-1,-1,-1,-1,-1,-1,-1,-1,-1,-1,-1,-1,-1,-1,-1,-1,-1,-1,-1,-1,-1,-1,-1,-1,-1,-1,-1,-1,-1,-1,-1,-1,-1,-1,-1,-1,-1,-1,-1,-1,-1,-1,-1,-1,-1,-1,-1,-1,-1,-1,-1,-1,-1,-1,-1,-1,-1,-1],"loss_changes":[3.1149406E5,5.6605406E4,6.9158516E4,7.4233906E3,2.3893125E4,2.485612E4,1.0028461E4,1.7060312E3,2.3314062E3,4.222728E3,2.1868906E3,1.6382746E4,1.7932684E4,1.0261719E3,1.2174922E3,8.320156E2,3.239121E2,3.9971747E2,1.2449219E3,1.748959E3,1.2515221E3,4.2576562E2,7.0177734E2,2.1196865E3,5.573574E3,5.678875E3,4.5614263E3,2.3248242E2,1.9837012E2,2.8440078E3,2.090877E3,2.7660938E2,2.0062578E3,1.5438086E2,1.0282056E2,2.2195105E2,2.5352206E2,5.418594E2,1.9062354E2,3.1877246E3,3.9986743E2,1.6889242E3,9.378288E2,8.624121E1,2.9423242E2,4.236172E2,1.2802637E2,5.328976E2,3.0265546E2,5.187621E3,5.7399043E3,4.0632798E3,2.7114883E3,5.0764594E2,1.8339136E3,7.01698E1,2.3368115E2,2.3963379E1,8.829102E0,4.6540625E2,2.1538672E2,1.2159756E3,9.496582E1,0E0,0E0,0E0,0E0,0E0,0E0,0E0,0E0,0E0,0E0,0E0,0E0,0E0,0E0,0E0,0E0,0E0,0E0,0E0,0E0,0E0,0E0,0E0,0E0,0E0,0E0,0E0,0E0,0E0,0E0,0E0,0E0,0E0,0E0,0E0,0E0,0E0,0E0,0E0,0E0,0E0,0E0,0E0,0E0,0E0,0E0,0E0,0E0,0E0,0E0,0E0,0E0,0E0,0E0,0E0,0E0,0E0,0E0,0E0,0E0,0E0,0E0,0E0,0E0],"parents":[2147483647,0,0,1,1,2,2,3,3,4,4,5,5,6,6,7,7,8,8,9,9,10,10,11,11,12,12,13,13,14,14,15,15,16,16,17,17,18,18,19,19,20,20,21,21,22,22,23,23,24,24,25,25,26,26,27,27,28,28,29,29,30,30,31,31,32,32,33,33,34,34,35,35,36,36,37,37,38,38,39,39,40,40,41,41,42,42,43,43,44,44,45,45,46,46,47,47,48,48,49,49,50,50,51,51,52,52,53,53,54,54,55,55,56,56,57,57,58,58,59,59,60,60,61,61,62,62],"right_children":[2,4,6,8,10,12,14,16,18,20,22,24,26,28,30,32,34,36,38,40,42,44,46,48,50,52,54,56,58,60,62,64,66,68,70,72,74,76,78,80,82,84,86,88,90,92,94,96,98,100,102,104,106,108,110,112,114,116,118,120,122,124,126,-1,-1,-1,-1,-1,-1,-1,-1,-1,-1,-1,-1,-1,-1,-1,-1,-1,-1,-1,-1,-1,-1,-1,-1,-1,-1,-1,-1,-1,-1,-1,-1,-1,-1,-1,-1,-1,-1,-1,-1,-1,-1,-1,-1,-1,-1,-1,-1,-1,-1,-1,-1,-1,-1,-1,-1,-1,-1,-1,-1,-1,-1,-1,-1],"split_conditions":[1.1013708E-3,1.2738973E0,1.408883E-3,8.2030735E-4,1.3340493E3,3.3737797E1,5.4166668E1,3.075E1,2.365996E2,9.771249E-4,9.4381924E-4,1.2586705E3,1.3180078E-3,4.1916668E1,7.8666664E1,9.1799635E-1,1.8613975E3,2.2583334E1,6.2083332E1,1.6129458E0,1.9627734E0,3.1166534E2,3.4387878E2,6.9518024E2,2.4412397E3,1.3237767E3,1.0361223E3,1.2299562E1,1.7476174E3,2.3957432E3,6.3075737E3,2.546383E2,2.748981E2,1.0146111E3,2.4355847E2,1.575E1,9.9567974E-1,2.7015298E2,1.01166664E2,2.7732227E2,3.0689197E2,2.8855692E2,3.0339526E2,2.830781E2,1.4239501E0,8.9916664E1,2.8168772E3,2.910771E2,2.4169113E1,2.1371047E3,1.6616667E2,